{"ml":[{"activation_name":"sigmoid","bias":[0.0103965616588547,0.0421926692451313,0.0896896355355107,-0.09480152268974,-0.07169806129546,0.0813991927009098,-0.01366773336693,-0.08737352223362,-0.07523691902685,-0.07881936123827,-0.03782728460682,0.0498681344293057,-0.00663195011535,0.0257418497947237,-0.05459994880223,-0.03340773480261,-0.0407412568249,0.0751996103485908,0.0678585132160888,0.00769251954977881,-0.04292392673528,-0.0832568629271,0.0408382118409803,0.0267098393043301,-0.08996515008693,0.0418715232399695,0.0212187416996389,-0.0820249161771,-0.05973553387018,-0.08051607144851,-0.08529935143641,-0.0645576811908,-0.00310932288225,0.00871115811840877,-0.02711487990887,0.00968500837032593,-0.0626668952202,-0.05789989447807,0.0766256105147236,-0.00351115626036,0.00587309969831007,0.0886148830013442,0.0718730629402337,-0.08858854491976,0.0909807457500122,0.0143259389978731,0.03954064159291,-0.05107748344953,-0.01179989594703,0.0568613142384009,0.00100142813187572,-0.01591984447149,0.0689093576126408,0.0784462293828731,-0.06615791613184,-0.09042659262443,-0.03932106548214,0.00721663160657837,-0.05677130670567,-0.013824482023,0.0477887866095909,0.00930108017965174,0.0788913523178338,0.0766457781532555,0.0838108758109549,-0.02410881132551,-0.05276887259317,0.0843952596713488,-0.00957172973808,-0.08363358637055,-0.03676904849197,0.0468759751185676,0.0660803773553128,0.0286897792972946,-0.01930899057547,-0.02922944879462,0.0977484529974466,0.0402180299930787,0.0322329378053493,-0.03194240420883,0.0851039810637701,-0.00493501980883,0.0819717699826689,-0.07146646017834,0.0408142845250232,0.0649368638738792,0.0822712140170936,0.0244248802064534,-0.09594692921046,0.0454023504935457,0.0968757777628528,-0.0779131580017,-0.04566038292069,0.0764376839877652,-0.03919489781717,0.00263757042127917,-0.00034465017428,0.0795011074928673],"cols":0,"rows":0,"size":98,"weights":[]},{"activation_name":"sigmoid","bias":[-0.29696357405208,-0.01011701032068,0.403864949837949,0.541592542584835,-0.69249187511855,1.44807075766576,3.53021660198202,0.447531856878369,-0.62341318874515,0.886538394115849,-0.00385994127878,0.748884744210982,-0.46588851071251,-1.93927799339694,-0.54754058268956,55.0734681874988,-0.75367366621487,-1.41773958731834,-1.0108152571973,0.639401003870842,0.900258350968918,-0.49452569476871,-0.36908431933947,0.727730760719497,-0.9882101447933,0.0287693223887992,-2.01176238037347,4.86049766205783,-5.04920344898629,0.382252502013592,0.134800160536039,0.40147596346398],"cols":98,"rows":32,"size":32,"weights":[0.779901893960586,-0.34032583499666,1.23858501757225,-1.39355413721217,-2.65229707972134,-0.48513480225788,0.0586706523100214,1.24860975964585,0.689476753073674,0.0972883357083521,-1.006998241546,-0.8580886135194,0.66805323161133,1.20669376714352,1.06232721854473,-1.30650780090948,-1.1153256220804,0.184937471501426,-0.48727395434435,-1.31968336326606,0.896495764134104,0.0885333220448938,-1.37000726433086,0.350985425806034,-1.21224414521822,0.895371161792589,0.931975890371491,-1.42978692756925,0.229906045434625,-0.08811341351159,-0.41201063168605,-0.76125949227168,-0.95099267276247,-0.42107472964355,1.22730416532709,0.464860321966826,0.300514176144696,0.27100471205042,-0.0371573287973,1.64282768287385,1.7969933217349,-0.83204895991696,0.328242939180888,-0.74808203361068,0.640311095522513,-1.51626007018208,-0.6005291639197,0.962456000761828,0.212595941433797,-1.46251353867198,0.464026091162396,-0.81244967766503,0.396585194842923,1.10055315112615,-0.19706439067752,0.983832624919519,1.37075023537571,-0.20444903379096,0.911277236024203,-0.53435158385467,-0.2507341191682,0.181414360095612,0.246980329584674,0.57205316375763,0.103833224779841,0.772213654063553,0.308178536239689,-1.21023350517442,0.16422110671468,-0.0278010734023,-1.5286915203138,1.51862810901646,-0.56793035461838,1.46917674486597,0.12257278343895,0.569307083520638,-0.89503299150668,0.854521841704937,0.82404315002599,0.986039584464843,0.245889212018929,1.30125830412632,0.354361446477068,-0.27984308833988,0.381268000483358,0.708500362918308,0.165639343790479,0.569783078620556,1.37800743096959,-0.37447581299924,0.600851099053073,-0.59305657763677,1.32142525344541,0.287093757771359,-0.26322308017177,0.187292277550101,0.0748695333837402,-0.79144965027397,1.63513838794246,-0.49280793368905,-1.53099235302227,-1.06825382665865,-0.68310853372054,-1.50350534895149,0.314778494603986,-2.17985640778777,-0.57325781622708,-0.021300691997,-0.08175804178422,0.074380802243021,-0.63206975285205,0.352183391831969,0.412661546557034,-0.1301596589509,0.123894655224142,-0.18266742256324,0.570499605312237,0.289426004712941,1.38583598547519,0.86140109425346,-0.20530328189152,1.16285126152689,-0.01599273353322,-0.54415916046109,0.245730490618829,-0.06075431159564,-0.22673567437689,0.664883326926129,0.622266096657012,0.0133296871195967,0.132982935899436,0.915632796149346,-0.13688686107926,2.04472535416562,-0.70403071495977,-0.856351339455,0.657800067338768,-0.57748953492445,-0.12102211573943,1.84757772032902,0.707817863750598,1.02144120627252,0.526490496941939,0.308907106068344,0.306860346909562,1.52003140763545,0.377778237586977,1.45305028074987,0.623726853609985,1.43799006707133,-0.27053247724821,1.55808667080564,0.873731677222739,0.691280889760078,1.36395233860841,2.42247137274281,0.880537888383315,2.2293921032807,0.779045986171456,2.74061194134153,3.73258315062844,1.18693933743517,1.81546613508696,2.04344017630568,1.84619198353141,3.05932608304133,0.192738563292787,0.0631814958594864,0.629718765551258,1.43556757695774,0.370789102361513,0.642821864339482,0.635677346130608,0.405369273035899,0.0435223322644986,-1.16990689128174,0.154608212795769,-0.65470250799279,1.42585794136368,0.491446544141969,0.682189922002928,0.124132038762579,-0.31908787307279,1.24364102873144,-0.18531008901967,0.168917578486339,-1.24774373995374,-0.50570193233843,0.771619497323808,-0.74519980836672,-0.17251388873378,0.145053819430079,-0.6619984761917,0.436289005882619,-0.23949141860985,0.898710146929968,-0.66217081223919,0.647268694876683,0.674975075500507,0.62636871262336,0.438045266118895,-0.16464475631348,-0.15847691677275,0.371891123872682,1.52334995051607,1.80082650702544,-0.6840054395049,-1.07014236281757,1.53526639609537,-0.03039472770722,0.215746107539411,0.738504785348071,1.41367383425478,1.2119041127675,0.485944958230478,0.185345359794283,-0.06771377369233,1.61823972507153,-0.02007525586439,-2.22711346074097,-0.25652346930598,0.486127070672112,0.528444945102598,1.07747514151085,0.105176317687193,0.278541194803585,0.790114502405951,0.21548064764563,-0.24732282005952,0.365884608771502,0.368886588429962,-0.0780123522166,0.619902332539356,-0.22211108091187,0.469998010702295,1.35159087815094,-0.96583724693409,0.0463857751563636,0.754736201735828,0.10461568567497,0.728029042088266,0.360900136484877,-0.75366002293076,-0.32005747746512,0.0150732275570756,-0.15162094514376,-0.39976695338837,-1.50698390353884,-1.85132140666886,0.461601322687195,-1.13484412647263,0.0141243156356171,-1.22722724151299,-1.03774895798762,-1.17842243879997,-0.83687611448701,-1.91369568913257,-0.6341761006166,-0.99992712091697,-1.18142214827153,-1.79290602564584,-1.66738537322674,-0.59221897262967,-0.8763344376445,-0.82273668740514,0.514244605506687,-0.81309310536592,-0.39211995420862,-0.88887065280261,-1.03741119608531,-1.07196190840291,-0.5540365294234,-1.30643568695489,-1.76654931593925,-1.66727287333393,-1.05586720697477,-0.45712729676952,-0.90442581004257,0.199431762602641,-0.4314085954588,-1.30339293531726,-1.48973100915548,-0.18148895098619,-0.68237594972766,-1.98361142179815,-0.2798930673299,-0.89554236425025,-0.98717863776088,0.918584837125642,-0.88580825101063,-1.86945355817543,-2.42186673141628,-0.48535105593513,0.168743649817831,1.1240076230912,0.338620424338431,1.23980348991776,0.15315737679512,-0.34420647549724,0.100942589192549,0.643902809809609,-1.08476358369708,0.143420566968702,0.178449079171945,0.719236687287742,0.532414815795133,0.751853288252701,0.807063098238249,1.16349763615898,-0.06899209295797,-1.07902019460767,0.262889534484162,0.896721634501596,0.352048043548014,-0.91982795532459,-0.56998225103167,-0.81138179198582,-0.33956341948639,-0.34259984638807,0.776029113890913,-0.96479928460187,0.359481242582172,-0.10842508294279,0.301022032975154,0.258821834440953,-0.91036663418595,0.780286105022613,-1.7223399240559,-0.86066060208038,0.232157817950542,0.00471244963123413,-0.71110846681238,0.840149234412058,-0.31303148510956,0.121084609756487,0.00318089006979767,-0.09360609481296,0.00390310866263488,-1.51672395373376,-0.12336279334355,0.194126941335486,-0.19466576499451,0.193763114672352,-0.62321477191744,-0.46875310669221,0.435632777218804,0.184845863261301,-0.57859420997661,-0.38738419416703,-0.25050756797765,-0.56219640962785,1.18888908291829,-1.40743201048823,-0.19473866889451,-0.73433723536422,-0.68762049766038,0.587434491956177,-0.36255917708891,-0.19242867426963,0.375129715451539,-0.62632752472098,-0.60115462230434,-1.9880218673913,0.558851692477078,-1.14954696937807,-0.42162578711963,0.119658447741316,-0.56096550637015,-1.06527058836551,-0.69789310208912,-0.69170872029507,-0.43110318535502,-0.33257300968276,-0.51037959134065,-0.46369279820987,-1.69276146367567,-0.85017408302205,0.680272241913818,-1.05143231120977,-0.9207795369156,-0.94367011812655,-0.52213175285491,-0.94490355860874,-0.40600073896831,-0.76899325789016,-0.48563768846825,0.94270852508335,-1.54621509316605,-1.29597845959532,-0.46349880116721,-1.72750279503474,-1.20535797271432,0.599723611261557,0.904392497571511,1.50106594402962,0.166005418990786,1.54750107916797,0.541686234000161,1.1455916835402,0.853841021876407,-0.08292008521666,-0.78647497150659,0.129033848531379,1.14621881951366,0.637162604079121,-0.37711544799919,0.283117923676212,0.0805894431497407,0.53863764507637,-0.18809325410152,0.378502145046008,0.239479627838707,-1.19257419626391,0.447004771136728,0.341831748319089,0.330588089145185,-0.90517321989085,0.215373252753225,-0.20040896705807,0.578765030973099,-0.94998213353251,-0.23334476889041,-0.85460050305131,-0.09920575011355,-0.19218817792272,1.11328810365132,-0.98631301303425,0.185400949379625,-0.12245612364491,-0.54682086096811,-0.17774039059422,0.397049791438918,-0.39618296180853,-0.09070811269588,0.671613239426979,0.19374661776488,-0.25666135916926,-0.39770510607114,-0.14232512361753,-0.08081453030339,-0.32794875525566,0.0170211214916325,-0.71701650143531,-0.5031973668461,-1.32341357770488,0.487721904836046,-0.78660311503296,0.752124290618097,-1.41676876340381,-1.50725745158055,-0.41807979875349,-0.92037649386862,-0.00119536217485,-1.09210296792463,0.560719087596982,-1.07596265306532,-0.20955710518341,-0.55072450377423,-0.83877891662458,0.320908082295037,-0.55482163508591,0.75265208391539,0.474240663776859,-1.06915267626176,-0.46463673055269,-0.08977635630389,-1.77475907694452,-0.51079375196922,-2.39074325526147,0.891025499160273,-1.19153682709585,0.619590111465114,-1.36287383505938,0.431889386871621,-1.8888487596509,0.418098823220341,-0.58449221799685,-0.08907113929381,-0.07905790503372,0.314585707512595,-1.21606811720605,-1.26114884181537,-1.51238320740273,0.428614074175681,0.0964140181954488,0.0306000056545518,-0.77046250563808,-1.15997801710489,-0.6607408537386,-2.16160086908359,0.729903367293084,-0.79939610391639,0.580569678127295,0.73182178233294,0.542519065170167,0.809944365443956,1.9751921292164,1.14542343774586,0.645399087632622,1.2072699681654,0.74528130056157,0.628745705141583,1.79138742137404,0.857417734217923,0.102872040178334,1.306806438108,2.49527613537519,0.419663273294016,1.08671027669361,2.53992374457547,1.91299932258011,2.64251973178286,1.41024043377806,0.173061811193639,1.70947666966268,0.26492191456547,0.417879486186989,1.65381101602834,0.462922637205388,2.05619221397496,2.13568006612803,1.72708793578686,0.773001731685701,1.20722325161186,1.76678133008727,1.78883087967722,1.38617606749788,0.884108799092089,2.07214996498396,0.650399623498456,1.37671380550822,0.866123291601213,0.196730140292519,0.991568081915813,0.773470866240288,1.59182309612623,2.28042127316048,2.83123649088565,0.99872108284984,0.761579864797662,-1.56880962009865,-1.06269394370061,-1.14760147348876,-0.23765080542417,-2.21694368026028,-2.36491324645839,-1.51005999885039,-1.22659908539943,-1.67873609078406,-1.93373044708846,-1.76515966633208,-0.98465340259946,-0.49272797402343,-1.80070558870986,-0.93416228069061,-1.69803846479353,-1.45268950728776,-1.78341962426891,-1.98816110276385,-1.74557523509422,-2.13335337578363,-1.15832055334819,-0.54181019613283,-0.97401087266909,-1.49834254763249,-2.44377667258998,-0.83403388287558,-1.16768924477038,-0.84268313888537,-0.97143386706326,-1.29026764358181,-1.37573773134184,-2.02090622202662,-0.60338918407882,-0.88342591352885,-1.01497451152405,-2.10359349944928,-2.07744519083157,-1.72371842278016,-1.9163256285388,-2.27933241540792,-1.15411702913918,-2.18240740770589,-1.15176387739068,-2.23943902337192,-1.83782573376674,0.624231507870567,-1.78966778266524,1.49690429590954,1.35298885344195,1.17076431083539,3.41959393599915,0.339444988329014,0.409225114645787,3.64873257446239,1.23817662792632,0.981181516186253,4.90960914628199,1.9312454226867,2.63163515164344,4.8206599975011,1.70567520296444,-1.10909975438639,3.64508143761468,1.54496085335934,2.48808660430025,3.89636986246728,2.86667432735316,3.04924915504885,3.50052874161034,-0.20619408147222,3.84010738581762,3.67807935965929,0.737576279892819,1.03940786133837,2.83490218695794,3.02617521665589,-0.60454414191414,1.86417822382641,0.948333021208969,2.51322190851791,1.61763376430773,1.08358371637334,3.72202614936002,2.39000379620959,1.36425116864313,0.460762482207779,2.3333229345202,2.91907583168324,4.27339006874783,1.56466463260137,1.03584049058661,2.4288942685947,2.44211642529317,-0.3849586343058,3.81831013949602,0.48376676656934,1.31948658649728,0.421031738067624,1.69771851067615,0.0147962441087161,1.18414772314543,2.22525539266635,0.452442799717341,2.27240806316819,2.05145360391837,3.37970728243669,1.21355807628036,0.585982131780878,2.52636041100517,4.99844115425949,1.24967428859403,1.86736877822607,2.20829197375422,0.557441415381296,2.83701201265459,-3.47184374547487,-4.11152894664823,-4.09067137634769,-3.5958855652806,-3.0367578368588,-4.49314029478782,-3.11716148342567,-3.78578148498929,-2.2206551530776,-3.93672925074795,-3.28341516520096,-3.47639288374167,-2.76549393721656,-5.26288321401039,-3.56860454709326,-2.15372017783683,-4.63716801363642,-2.99521436083796,-2.33989946028014,-4.18535282143618,-3.83358153217666,-4.76249919908971,-4.75133189557201,-4.35089841372101,-3.16632583465653,-2.70825698280357,-3.02674809183465,-3.79081195437756,-3.99429238309088,-2.74997056166961,0.207018214694261,-0.191206124331,-0.31067016790782,-0.5964419245795,-0.19821107105756,-0.13456772389803,-0.39946040117104,0.935883023581448,-0.2488972052722,0.133364146289084,0.932491184915574,-0.07093230111004,0.483717261305347,0.46066919984712,-0.84993973428096,0.236496317512326,1.185636884893,-0.02155986546108,1.1281625915709,-1.01333703306878,0.708245630830676,-1.27521497419635,-0.9341778301346,-0.03909430100394,-0.47124093243392,1.25408662067533,0.0663265584735012,0.961488692094232,0.252639175866488,0.205833060558029,0.628735791888781,-0.76051211554448,-1.68219953343042,-0.61796415139602,-0.47477539914238,-0.65459698667526,0.333432221333878,0.745590227847967,0.274468410040344,0.823583468333081,-0.07618497279189,-1.58566315197939,0.624664689903634,0.108694061907793,-0.26072844945927,1.22119804219157,0.424663924512269,-0.30287848704701,0.238082149291112,0.628747933169032,0.589163258947598,0.557114288529293,0.028249357565811,1.31999484439985,-0.99766988777432,0.311013787833259,1.43549077493763,-0.68197680271963,0.300733967093929,-0.16636790425446,-0.95855517286025,-0.20188465093417,0.250971965865861,-0.60196166166192,-0.35160434497437,-0.26764759481292,0.710757857035432,0.10458110480764,-0.21554254223871,0.72734468317487,0.705924087064131,1.75858395524697,0.705024510681224,0.521989589833448,0.289185925118241,2.00570270165999,-0.62632873185873,0.109707486441348,0.289636639132789,0.646954288704163,0.237084906321942,0.397653805163281,0.688463719848886,-1.57533851649016,0.723008979030709,0.756093383372369,-0.06974616188164,0.653347016414371,1.39309623848586,1.14693416343967,-0.46711117601122,-0.15245542277056,0.173321178014009,-0.64734747878175,0.680432539614019,-0.45329532450227,1.40304439028958,0.854739183914905,-1.21412693646211,-0.89877648968092,0.132370758975801,0.899238891410861,-0.60227895677791,-1.16421390244105,-2.08168193148707,-1.34135846893473,-0.22715322242141,-1.8673080006775,-0.53992580592621,1.56619133736028,0.264697673140819,-0.35788747236718,0.762169364124317,-0.80108110558024,-0.07724376089533,-0.32917056925357,0.0912794824286794,-0.21228020976356,-0.48335569237348,-1.00320553067381,-1.37447832498314,-0.85655662063256,-0.5593680835087,-0.03585789233118,0.237023370135559,0.477753715222959,-0.91001499717643,0.0806717185260924,-0.42734811216128,0.875954419350097,0.753375764123646,0.976226179202707,-0.40258802031083,-0.57878700318488,0.230476829012419,1.33582892532163,0.80516825223557,-1.07762941334818,1.77929263589137,-0.81385339058594,-0.01231317351708,0.500080120690236,-0.41490859874736,0.452830622134851,0.339854382273829,0.213446052099773,1.51566920029518,-0.31268970263622,-0.20300520026476,1.11803621503352,-0.18443631459484,-0.05269401519398,0.877925807157451,-0.08518701495213,0.839771423632655,0.553940500026038,-0.8148870341688,0.86936894030868,0.219905654585237,0.169885974324785,1.73593430378661,-0.60887057670665,0.997395694942497,0.721651652177055,1.25846383532044,0.53004130035205,1.06010131658157,2.42133229838072,0.97721485242313,1.44205092778021,0.942916221356365,1.16538031085292,1.14745476235971,0.554695506969708,0.637610568312458,-0.59720785223719,1.09819180634553,0.231994732914227,0.199796190118497,0.163369160991317,0.827469591176966,0.788071628913696,-0.36504202582423,1.66491563858648,0.243502480096337,-0.02036697263302,0.537592182588818,0.846813808002728,-0.37568088271537,-0.28103834471387,1.51064312538308,0.902594715109537,0.323113306392497,1.16421414204554,-0.83096915672763,0.983159462413575,-0.2289181486437,0.378422018238593,-1.08051574012965,-0.91301135409072,0.499856023431512,-1.09818917795903,0.498939605338294,0.570088152939621,-0.64121653257184,0.184988738263625,0.888830854968401,0.58632105247392,-0.40132176356755,-0.37916900234306,-0.21459922806344,-0.56902438306194,0.371320519182112,-0.2390009952928,-0.51604175597663,0.543526728067466,0.462021636238197,-0.23865770031302,-0.44919348482553,0.129987634964445,-0.86255961059683,-0.42398810379586,0.160153974272276,1.10652563047042,-0.4661990493699,-0.39363554662254,0.00704362259373701,0.691351711135092,0.0512825853349728,0.207774623765999,-0.09369105825789,-0.89985317133399,0.057382047347325,-0.04160545273613,0.0721750511626472,-0.42687575189586,1.17769372801594,-0.06607176529686,-1.00434469734077,-0.44379351963253,-0.78411857298294,-0.20150651977485,-0.04400790640212,-0.70686524733955,0.449667756871543,0.466913523303007,0.200328083193385,1.82261461177576,-0.87067403937898,0.346680996522664,-0.47702255944333,-0.48599931443194,-0.08909699918673,0.964946321552439,-0.65427919456075,0.681267147839157,-0.23118619403002,0.0682754582633682,1.02365463638424,-0.0872564843832,-0.30204985868686,0.876838394167281,0.867818014019518,0.270986291850641,-0.1140020339122,0.488116622208081,0.33773648208182,-0.53378918205546,0.0210282653873964,0.488709481683188,2.40618788613264,-0.3335106114374,0.0909017074844005,1.06382326956539,1.6974237870076,1.33480967763625,1.42370600089491,-0.16034857635481,0.599807412494355,1.00629941731659,1.06350754868408,-0.31923638760897,0.427594669687595,0.0146783628839305,0.811003494199385,0.79386169568776,0.485141247317669,1.08695753457725,0.676901513114009,0.952631533323354,-0.32339788015978,0.255574785701661,-0.02701437089809,-0.61928629836141,-0.87393396620246,0.289674380783232,0.447033800581754,0.489842258845332,0.666613075671225,-0.40933910499022,-0.90536558987911,0.238601252360679,-1.50682790833232,-1.32688583967864,0.275464748040456,-0.13605651092165,-0.91486936882868,0.941035486819112,-0.04082640032652,0.663485970201458,-0.50200780084509,0.640165996775682,-0.81268996474761,0.29245204598133,-0.97082695403508,0.474990949137224,0.114853347877872,0.600130044802426,0.391571923041266,-1.01879263209467,-1.45117177254619,0.234579525026517,-0.04758122353752,0.203898702473155,1.09610113023439,-0.87640023430819,-0.20852413812458,-0.72388113804653,0.907079928876526,-0.31555271380824,-0.87634106454808,0.788902004775696,0.629082620805887,-0.09731654337966,0.362255621169116,-0.35070748409924,0.183734382945436,-0.04604794966711,-0.94096157748835,0.0991052932277313,-1.29434675109489,0.230556033238419,-0.26252223434595,-0.81328349304321,-1.0450901533753,0.699525978531291,0.598984967675101,-0.41860220066225,-0.03642119133109,0.658488889879729,-0.62426828296357,0.180792776570865,0.556268992783637,1.41968506183633,0.113349722881042,0.145604005110759,-0.08652940432556,-0.05694378715121,0.652770201896697,-1.07041174528446,0.0068280601584173,-1.36713524695941,0.122796492396528,-0.08688456113808,-0.4697942615636,0.272696241338446,-0.13771866526286,-0.07641379282446,1.14406776328927,0.0925700551712644,0.0422102782241345,1.24402091367696,-0.13695322109997,1.85130562609811,-0.23203327156012,1.17419213373329,1.64773906430032,0.508202524376731,1.62384178948006,-0.20335583249832,0.361908749633441,0.882327859934548,1.31306862957619,1.33863036118929,0.974968640634655,0.722482476557433,-1.33885347392657,0.585883792671352,-0.51908128622297,-0.32936234250407,0.329951711678447,0.640625799566034,0.817215165610206,1.23076642968783,0.554737793431676,-0.80645363344686,0.0850804688185771,-0.8419697816102,-0.54419501153397,0.544297415332091,0.684065757499349,-0.27155177503948,-1.26729474524701,0.255559963838825,0.132026245829078,-0.5191597448817,-0.7897143105784,-0.32278873124354,0.556079639912893,-0.11136202087233,0.395727691421821,-0.4046973128286,-0.83380956912914,-0.39643998511931,-0.83030088258903,-0.47974500292267,0.665072057465277,1.02095835631887,1.05850491210373,-0.17390908525447,0.272317262326196,0.298559500255446,-0.68419976863683,-0.06019774528263,-0.0691178274127,-1.13013122997876,1.04673649063006,0.911819806519352,0.91143642668631,-0.76410718177009,0.683850927043556,0.635789075534459,0.0693947567906262,-0.34245372274918,1.07157142541545,0.460057832024257,0.133996778072576,-0.36452122719762,0.118717705607663,0.291128437492694,0.223064441666308,-0.49360080989384,0.677911879033937,0.39537680232567,0.501459631265548,0.263949054869882,0.331401609082979,0.260489231582576,0.696530316437761,0.905129394246999,-0.2474471722269,-0.21732486502371,-0.57988054323774,1.27985847790565,1.31057467690697,0.352595873086199,0.967433162806679,0.334084132655357,0.347879360642924,-0.24019125077636,0.995674485005444,0.476406784739712,1.13306515845106,-0.28179464359655,-0.27921349457016,-0.25820481721244,-1.13317889159084,0.192662637352603,0.221035458379243,0.858810304672722,1.04969362799543,-0.51331201856123,-0.84853616545073,0.0376428387840529,0.572016108279554,0.707140066368779,0.283139708434941,1.48055459244504,1.7367696600774,1.23684568791731,0.418574601563757,-0.19492496542744,-0.30940644681871,0.610837020349378,0.593559068508782,1.10798657698866,0.678491922612298,0.105865884169942,-0.21011095055895,0.375030137353822,0.870090429454336,-0.25891259454018,-0.81232856432895,-2.24974249494401,0.642673810689271,-0.0535312816419,-0.2384614512114,-0.00611481583519,0.260933247942806,-0.13110252182348,0.229108541764147,1.06261538161677,-0.18910471993091,-0.37094718818085,0.826275919236337,-0.10374646610883,0.878773317092394,-1.41081073284262,0.160582311979863,-0.89260383719477,0.257244076921802,-0.03242530486818,-0.56055231668566,0.217179761110069,0.488471093170391,-0.82798090221995,-1.10848082949345,0.0441191268706419,-0.78269492066593,-0.52054892362015,-0.93649057250765,-0.16563049327013,0.0240506202814897,1.83805565195226,-0.12974418295047,-1.11330408674212,0.110908129456115,2.76353402148567,0.0419671263120912,0.425909813787674,0.910623996356177,2.64463788673976,0.570924696015888,0.156585600716352,0.939598543650112,1.96260177576576,1.32787072403172,-0.02515100513694,0.214583326298305,0.408969054616383,0.552328161082319,0.136848916337741,-0.39427241881168,1.82866558195562,1.02521263348122,1.23166065072114,1.69703912816751,1.88235710950062,1.20568410062272,0.225774180710849,-0.18570372030361,-0.43556999793274,0.890456528925414,-0.5293731268684,-1.16323390377541,-0.25476132604702,0.934261656519905,-0.33572413227247,0.393695000515353,-0.24902692231456,-0.02198185105341,2.23614107035466,0.220914607268654,-0.02527329251717,0.684129480972464,-0.6125492373371,1.15752742393481,-0.25269895536921,1.99393357661908,0.519940738613902,1.9859856490218,-0.54053879150344,1.75841930674417,1.00536764826636,-1.11311412075364,0.588191531919982,-0.0877998011331,-0.11305143515033,1.86962733875103,1.66010605492245,0.159386687458682,0.756084614723079,0.806628343725701,-0.13806042949134,0.92747577768283,1.89923008705912,0.134750420145982,-0.50138964508899,-1.39889367867771,-1.27280976851373,-0.72247884439012,-1.32942876095714,-1.59980708161978,-1.28484558550982,-1.39355167167134,-1.80918804974175,-1.04341779101768,-2.24062959562946,0.225357660729783,-0.06471860185682,-1.15116016498924,-0.09833509003559,-0.491661183392,-1.39436404788355,-1.75513772691248,-1.33099026712661,-2.08813107452314,-1.73903690377265,-1.06564587704066,-1.87189817464372,-1.69486325668119,-0.46655570211422,-1.24871956251437,0.354101641826587,-0.30883457231882,-1.08990531837754,-1.11772800765514,-0.6288911813405,-1.88773614745526,-1.1394827668034,-0.35095722336679,0.185925751212508,-1.27262941854417,-0.31546271665005,-0.83190476255754,-0.96604762467329,-0.19984611571114,-0.20807488773562,-0.75841464475238,-2.56861514582863,-0.26269941071618,-0.01167553085721,-1.91236045169028,-0.54267662014431,0.628940351724429,-1.28116992377986,-0.721160761789,0.0496811708375265,-0.34939471662731,-0.55877718209615,-0.21792070756935,1.97697866587587,2.8352739509203,2.07075439458604,1.84779325793484,3.67798612830246,2.71631932541193,1.9582822771444,2.97793588073664,3.11185301445877,3.15622977417823,1.2357073269726,1.70736593706446,1.47649238614057,1.65580084259587,2.12137554556916,1.36239982033134,0.782315009044233,0.706167894323013,0.769952137711613,1.75373103603886,1.86519734777271,1.43761651134552,2.00347271701563,2.33928300471215,2.27911602724874,0.858270907533813,1.79277881674193,1.17154558954052,3.15894182355126,2.08453941613537,1.57613300968251,2.28178357637934,0.812215201941513,1.09294292913918,2.19633765196452,2.6267469252344,2.11844919157787,2.02053879735046,3.22121947194995,3.17676454360753,1.40760670117352,2.30857942879324,2.14795306111309,1.66257553610165,1.10415489446792,-0.54764198300464,-0.11865822984602,-0.2014865721959,0.118984945567862,-0.08029874629587,0.843078587899441,-1.59848425781334,0.644622055446823,-0.01137203943437,-0.50195782428563,0.783106809663127,0.675317809597933,-0.51075969832703,-0.73871603973442,0.551141341080308,0.433438403577545,1.81967861589061,-0.78286383822097,-1.25642228198683,-0.48734107199735,1.23503971232342,0.428547426946877,-0.13626947109779,0.0539942805693697,-0.38877057009258,0.548256907612066,-0.39480201169306,1.09413299998534,0.535200307172588,0.410923694151476,-0.10170901350733,0.822013483986699,-0.01819152520225,-1.56589111293665,-1.07707424848035,1.07300997486219,-0.46229180718156,0.0848594470570791,-0.07894363281471,0.158565686016364,1.14511777429993,0.992659257457959,0.823471944288895,0.692822775663339,-1.19725885255979,0.306965704116593,-0.04619894604527,-0.34140587747499,1.28407759173933,-0.52914686442746,0.736518116832874,0.216822050931046,-0.46983080313962,0.566101952862885,-0.73266523531862,-0.24113225417562,-0.12215223422485,0.732397866179933,0.266977729250636,0.361090047170333,-0.69675599334123,-0.14258178449457,-0.17335884275308,0.6619873715692,-0.45786817738584,0.79234218755491,-0.62728129025487,0.377834907598076,0.477151684612648,0.462194298074912,0.272615174399745,0.0567754176539667,1.35747689454774,0.228434441132286,0.746012301693281,0.693316258803227,1.14992075023638,0.517389147588973,-1.22124251742399,0.200045423137136,1.73330941132297,1.04521823599567,-0.01101150059361,-0.37580183406795,-0.26687774056472,-0.33737469186374,-0.09829896548194,1.04201207605895,0.51920580316295,0.332486440242367,0.0692597165413638,-0.41000678322441,0.140868340177174,0.375718934858056,1.10411256212894,-0.16262244973682,0.702785046615411,-0.5319503296626,20.9090997384192,22.3916530518638,28.9742475458983,57.4994168781024,15.9244176976247,43.7129168796996,51.16534812227,49.7717732668136,24.2353322361788,44.1826713815739,37.5804080276691,2.61354102904341,44.0888964865661,5.4361427010143,8.96932850355544,48.9518100393477,26.6123840778507,6.40867573823425,59.1455356837593,10.0744028594476,7.57985768795211,39.6202193435861,23.2549597384806,17.3146662749012,36.4620101563293,17.2968941208206,26.8472562187757,30.6923907869905,32.7617835528128,5.44741279242949,30.1819341961773,16.9176364342807,38.4380835177588,36.4406729732045,27.7051494998338,-54.8503424893188,-55.1170522875439,-54.4784917981936,-52.9950512852979,-54.7559211291525,-53.1849102617917,-53.7957413678711,-54.2992975556158,-54.7743136196032,-54.8496065828359,-55.418346532059,-54.6043633179989,-53.3953688383502,-54.1102936459574,-54.8033017732041,-53.6758680435432,-54.0715007004466,-54.2885547572886,-54.3968966720148,-53.9239538541299,-54.7998505202288,-54.9947458577047,-54.9779336952869,-54.5853493656666,-53.4316035375974,-54.5531648143727,-54.9568184816523,-54.9066010235002,-53.4145560096361,-53.3182291851386,-54.0038480715147,-54.2453295174076,-55.6397355167676,-54.477795550379,-55.6768711529663,-54.201298047427,-54.2082286751367,-53.7946674620883,-54.1266457246765,-54.3317190141129,-54.8622625976559,-55.3438263699163,-56.0428807334,-55.0216806874696,-55.2352133870019,-55.5926636102404,-53.4730944756479,-54.8788684037899,-53.5911824749354,-53.251530281841,-54.9735024139785,-55.5298304772388,-54.330073297976,-54.5472542591622,-55.8917283816425,-54.6205461522419,-55.7269604127546,-55.6106762810489,-54.4142878141712,-55.3342995616531,-54.406534364172,-53.9660262321688,-55.0607313560259,0.306184618687945,-0.98737677028057,-1.70822431264425,-0.27575339133271,-0.48261994690133,-1.1552946476909,0.547201558938754,-1.16993324769996,-0.56072982374062,-0.10077347065878,0.820640373832164,-0.89452039592909,-0.31670174745193,1.04127052149583,0.368723327882951,-0.76558111312753,-0.59105964950833,-0.77528312819445,0.66732632134,-0.65805332208793,0.0497163709024611,0.854609739348189,-0.24330145808676,0.744120650453929,1.18204707343542,-0.09195730034292,-0.3542657981518,0.00722332556104691,-0.30406703533734,-1.02170896972706,0.204992739702202,-0.62705113254863,0.656770694705124,0.273979144265101,1.15249985222789,1.30626153614094,-0.4893564016405,0.366995349384183,1.43363415627854,0.529668522841013,0.277986075597101,1.06156540395562,-0.12823541417532,1.08359627059523,0.0286000630441293,0.746795209010102,-1.770297210133,0.344023652056563,0.444702936184634,-0.5065488147417,0.988968669097512,-0.1172477308904,-0.30327530734201,-0.19028388229517,-0.8029882045396,0.307810770332322,-0.7150642743831,-0.06872092815475,-0.41600213228265,0.875269339428702,0.158081023727324,-0.36539197750682,0.468537967680262,0.0213669593710713,0.396472891479102,-0.06917801701825,0.139992680992539,0.635925159996509,-0.40207984116948,-0.63842428703163,-0.30009636424401,1.67082950430658,1.42139312576571,1.14139817845779,-0.1829929770089,1.37319028831103,1.05542826160243,-0.35214107884142,-0.43903053686373,0.831102357838598,-0.14103898106014,-0.30004245863125,1.43381737527159,0.0925943656615928,-0.20346472601546,0.15550154260785,0.605072584135816,0.0742230296056584,0.0318739798077595,2.29625182879868,0.00962610460814366,0.746118480881756,-0.03887330765258,0.39478474565143,1.25816567239976,1.14959073419427,0.4831698011586,-0.10632444699025,0.440282253236224,-0.83731211702385,0.055382340135406,-0.09657409641661,-0.22243408570972,-1.144433024211,-0.68848677159712,-0.27485242599267,-0.45145922450674,0.16944882077173,-0.31994112128253,-1.79302037068039,-0.75680788642803,0.672155373246906,-1.70892380393815,-1.15967752764229,0.011591239699196,-0.82763695748267,-0.34959424892749,-0.33104334725532,0.106052992532496,1.45776377533635,0.190119549676436,0.75029315056818,-0.24846279994772,1.02703816523596,0.558653259568513,0.14954833241698,-0.30875239292541,0.0775837776703803,0.142692393835283,1.08056400232491,0.899984956618024,-0.30937259475161,0.833904684005679,0.731195278579778,-0.95233660896256,0.0982516601657773,0.93133695243222,1.46043844983531,1.27749534629508,0.491979372182637,1.691487765296,1.34572581470704,0.486138372864713,0.697183989029587,0.982401210339378,-0.43188603584203,0.65947458106457,0.468901199512273,-1.01022948732789,0.610507975853337,0.0957759580572507,0.472599746450079,-0.79369682566291,0.588263213786266,0.885049084428606,0.917008982881729,0.78231447789552,1.70750442606835,0.95714930581955,1.45055603394343,1.151581337197,2.31078273296272,1.24253440882697,2.26272488927389,1.79301139442801,0.317580643236414,1.40809178115379,1.8614113448488,1.71245248118975,0.352942054693695,0.740839292304644,1.2716402199919,0.794073767809812,0.647672183132151,0.444832990683641,1.77929173881831,1.87627925042788,1.00266177548948,0.413524474800301,1.08136176845201,0.0671549569600328,1.11699059776243,0.797912903213422,2.46807189127854,0.574229573864981,0.651784053029541,1.48079160679924,2.14982108100986,-0.3410766984527,1.35645274841902,2.60020640700428,1.76626740781125,-0.21764165191408,0.921573781925652,1.9300850134033,0.722278176248152,0.7591747402342,-0.4842391155209,-0.67498676718873,-1.25322014850872,-0.70121805019039,-0.34274230485113,-0.92523105907758,-0.27461264372015,-1.19002305016767,-1.31481787495665,-0.23465526431884,-1.03980334064728,-1.47030836635644,0.982298491416487,-0.25008862718542,-0.0650517644872,0.195914002586142,0.20084365523364,-1.288837248672,-0.85470664226787,-0.55490782168106,-0.52825198346101,0.311819421798008,-1.55839321755657,0.463389944671426,1.11628474011855,-0.01917627992717,-1.60878147903765,0.149245693601155,0.65874839840232,0.0388287330739006,-0.30757189255374,-1.36235068863508,-1.09495559346101,0.0825064830151934,0.581657017352587,-1.59447649086196,1.25197397234842,0.486439078950727,1.00575308448822,0.0425822527512231,-1.00722874801746,0.390983877125617,0.558054366187296,-1.32679597579154,-0.24490162723473,0.64422575309041,-0.30487136537644,-1.44079029247744,-0.09044076699029,1.82988186324897,-0.8309008606237,0.870716045148069,0.406203800823538,-0.55107188547913,0.552468754459967,1.02446608200526,-1.02697211085868,-0.39524388751662,0.485469145906007,0.99323705775414,-0.22872373506056,-0.24060007772933,0.210112659732675,0.145117371159031,0.149564148599056,0.0270380242198595,-0.29138095979396,0.997287942876143,-0.50744773125047,0.727543343756372,1.57039093249715,1.29232769621831,1.34855985147362,0.945459613287024,-0.06440041329336,0.892065437524236,0.985942210892803,-0.24126388764495,0.788445935833676,1.82371969253299,0.198853719275466,1.96341166577027,0.884660990411568,-0.17954047781344,0.488438794055946,1.06304414373111,-0.17861911834454,0.0184001409038969,0.707355996487446,-0.10516534239754,0.175112301683986,0.502924515958746,1.77981790891619,2.03155671020605,-0.59115442990714,-0.23737206025554,1.49652898139599,-1.21061138368343,-0.08445184255772,1.36503043111786,1.83421400828021,0.443052050168012,-0.66109842974763,-0.96381739329102,-0.20297769389715,-0.57456391869021,0.649755971885593,0.24380566524184,0.0341376563629395,1.17635021678862,-1.09935114983075,0.953353394763473,0.977147160981887,1.04329715555276,-0.13947638872189,0.465656989864317,0.692312211228319,-1.02501161652343,0.137972688181417,0.73814435155961,0.619981803183271,-0.54381607069008,0.440747181709748,-0.60320192693001,0.0606497236241837,-0.17477079935222,-0.79921277963757,-0.91422611526112,-0.88624505655857,0.666202153237917,0.169747722020698,-0.92588720267908,-0.32003471452355,-0.9612947434365,0.348550719890666,0.112932700762887,-0.21003702793882,0.540754915794446,-0.03858356583013,-1.73893668324737,-0.33951432626442,-1.17645827808443,-1.04278393610464,0.39629207390822,0.822322989690121,0.669903841262682,-1.38846928383516,0.607958263775312,0.0781336451666599,-0.6717712553136,0.161474852649355,-1.08010755610582,0.412578093508852,-0.29556922269625,-0.10142632351006,-0.23848143262776,-0.50440514855434,-1.43247403375463,-0.24906374695785,0.0408329843966271,-0.74553559350998,0.63169425489809,-1.49940615648174,-1.22746185283563,-0.08006145269425,-0.3763520652336,0.0432292424685209,0.324237468587257,0.821988267578717,-2.17654869653117,0.0730869151300531,-0.68312858100333,-0.22174151077972,0.0615384829443933,-1.29349638936332,-0.28470357485044,-0.70761606281716,-0.02265022220736,0.531190985433977,-0.48812540673689,-1.80153584357749,-0.22170603405661,1.03040116674775,0.459797559784852,-0.99028940282507,-0.61686395793092,-0.27918588552627,-1.12716054731318,-0.35117650961545,-0.73766225963551,0.152234453106908,-0.40234971505156,-0.92745795484627,-1.2217405385924,-1.13175716878425,-0.35821973510083,-0.72749443241818,0.135900553226715,-0.51966139294361,-0.21130654972236,-0.69023427443156,0.337207353604551,-0.18537625453905,0.316676489758921,0.554238112632266,0.397075114442297,-0.34046399535775,-0.2548928403321,-0.21457537652578,0.414034309388093,1.26086744913527,-0.09204117060204,-0.42654845682709,-0.23251338134216,2.86242728180532,1.40756305491112,-0.7294682522398,-0.79966072014709,-0.66608802030965,0.646871984773569,0.725598430060025,-0.27755501831249,0.91620512589508,1.54557858716993,0.44951411741975,0.686293292727615,0.328513452026188,1.79614225558717,-0.42027046787124,0.282926491093774,-0.54466167661286,-0.13847658212445,0.143141896448814,-0.74278333390325,-0.37404533755276,0.160456633756833,-0.55191837231907,-0.14601687569846,-1.38352388524609,-0.20405692485518,-0.51599654303757,0.100929932598293,1.46777522102935,-0.14889128106219,0.53935496600637,-1.32117696035177,0.593502664232463,1.14817796574382,-0.60839239248946,0.701490609835683,1.22705409376336,-0.37405602290086,-0.44464121852828,-0.79687481538013,-0.74823469678203,0.0260741957887786,-0.98387066869472,-0.649598273853,-0.22403408459234,0.760445153083202,-1.09524606051453,0.832218363699008,0.356760421616602,-0.70319414804793,-0.53744247455424,-1.16446231515373,0.081148528585521,-0.66391667464415,-0.70325052094976,-0.41155671311462,-1.77516702883776,-0.39313127850993,-0.83421933354543,-0.34622781978042,-1.56541394081258,-1.33717886259955,-1.47049435328151,-0.61422751221969,-0.23598481571895,-1.72983388783658,-1.82252156835482,-0.50417824714267,-0.44138829131251,0.16488008275001,-0.07713101375387,-1.45055636918277,-1.04268488829022,-1.36631764509794,-1.10342537875811,-0.06092827124453,-1.23285827278438,-0.75245011265296,-0.63968158795295,-0.59884339886256,0.31248017146032,0.493915252356356,-0.8930093565579,0.728738122014197,0.840875774987211,-0.95810262001539,0.29853963628367,0.363343538331396,-0.54935467667336,-0.06500110137365,0.343628776346039,-2.46659465698842,-0.57324427569737,0.41450412272455,-0.34032463421843,0.215932483710562,0.245893741655755,0.699489680887148,-0.28640549183763,-1.59584284909004,-0.50563738041845,0.0803534853637121,0.209237430830072,0.673655959086392,-0.59180342329039,0.233694368767515,-0.24718827619056,-0.67090429416186,-0.52830944414134,0.978833035388189,1.18032179592553,-0.47622456110441,-0.55548183558953,-0.37826127864047,-0.8957901213335,-0.08581859226865,0.729956669589824,1.23957257162226,0.104544914648521,-0.20805980073309,0.0496934712665911,0.541735630481246,-0.75459004181038,0.0343312274923517,-0.68419307414679,0.240964743818951,0.462210670454229,0.546798963377182,1.22934571302571,0.0580218672547613,0.212267765648927,-0.92141506078478,0.0626932126035994,-0.68930492455074,0.443932877979581,-1.59361475429206,0.720737167286601,0.556713447083431,-0.09295423439382,0.411616987711102,-0.87405491545854,0.669412024907386,0.0356748994813634,0.555372149986924,-0.22851288204205,0.215468896339579,1.89435133656939,1.09113696890313,-0.10713566444346,-0.21942077171646,0.453287588395587,0.401525610782112,0.11779974643303,0.185559520063679,1.51126383391246,0.560064654604472,0.725164180095061,-0.30181612578528,-0.91204547262413,1.0127628044738,0.796411317684237,-0.18806616415144,-0.44111042777802,2.4890371917479,0.478894156935708,1.09306688344169,1.75914606079857,2.21379646239599,0.295804192224838,0.76358829342733,0.904698287778913,1.01126051163666,-0.06022253345856,0.456335613875938,1.67805315434575,1.09047909040609,0.0795139168729291,-1.50942580765945,-0.31176105831611,0.648310123814833,0.535038919977181,0.715652335981878,0.185437340362184,0.941932693453085,-1.07494848267345,0.827200252617813,-0.96412218761414,0.349830209419325,0.858217690283999,-0.19497948728514,-1.22681223267888,1.2643906323285,-1.2330358748605,0.143216710838236,0.605629276539679,0.236691644778101,-0.27830281166983,-0.17117701192635,-1.13850275927404,-0.48116500494144,1.68819735693796,0.105723529682132,0.641191131502455,1.42355658121626,1.13944073408027,0.128921763236467,-1.19789447521738,-0.55175954623219,-1.36213561150991,0.224853712136366,0.472101687390954,0.0381317820425306,0.295861372689803,1.35876154229984,0.236526982652682,0.436819969635867,0.371299637526239,-0.75709534938292,-0.64287323162374,-0.63957828676481,0.332378405966472,-1.38202105568093,0.847559634464173,0.40322999462232,0.338611159090841,0.880495539316247,1.94431972036656,0.238528011279648,0.0640430551395248,0.255137773444296,3.25693456629395,-0.94415935696317,0.236531881470797,0.110706072496624,2.03083268635462,0.378821579899314,0.509297445250741,0.270137247241882,-0.27477607605831,0.666133439623523,0.77181439501794,1.78965610008582,0.742387392029201,0.735390678923251,-0.45476973203876,0.169554309310021,1.57513766147258,0.612581257454309,1.34261153064173,0.794157794366586,1.0878591256787,0.965127346977484,-0.07097167861526,-0.20663190193899,0.841800163729358,-0.14393886500856,0.526596959866563,0.398751167876161,1.06331160877062,1.43319552716958,0.960255835123694,-0.18590854584244,0.100579883200722,1.10829828680558,0.222160945919812,0.126501420674611,0.0397218416628815,0.821188429110806,0.441568185739941,-0.05662373262085,-1.24526767233761,0.312454299318861,1.7009541771979,0.712544297340796,-0.13149295421998,1.60905382164537,-0.32873442974707,-0.95462750603122,-2.38116384324896,-0.17563001992156,1.03185945900465,0.32055448453232,-0.36965532215785,-0.411408237346,-0.54729578129109,-0.21015106612464,-0.39210052476069,0.370454037040477,-1.27983925259555,-0.21037280053268,-1.43997221552285,1.27764613620265,-0.0073697265241,0.430426786885484,0.591214284668989,0.479251419973919,-0.46122833545202,0.278445512402371,-0.65201908925402,-0.77319070424686,0.410670307003978,-1.48639577608745,-0.55737427716006,0.179329100341967,0.43486018917452,1.42500735478277,0.674909049319147,0.578788486345508,0.0713350163582182,1.18498838142452,-0.48659239676746,1.21126258791321,-0.20130314546827,0.88375586763746,0.707754245631403,0.701500904213467,-1.20440998334701,0.881104617698438,0.394321492419646,0.830079735932172,1.22447067224814,0.663092610046296,-0.10539256053235,0.14503762000714,-0.02171735096937,1.75942363522877,1.07708527072606,-0.2704167620045,0.605126893744632,1.30418026976035,0.909449159263263,1.99940653317682,-0.07858575172575,0.0148105260931476,0.638111701071501,0.980105851870758,1.40119876704461,1.82917696677789,1.51287538775884,0.368078220822809,0.964109306966883,0.124659657871216,1.35294306809207,2.07572984547155,0.824691540560334,-0.01808107813663,-1.09010938457574,0.596230001020073,0.66163872530056,-0.05281096639801,1.46213468078164,0.50274482277702,0.191169887647765,0.0275951399773651,0.133708983885355,-0.62929653937251,0.556391256974423,-0.01868868014352,1.04332961498506,0.404402160128623,2.11994775037277,0.611567005555943,0.717084458691676,2.08314797851676,0.213915445276245,0.353037936546983,0.799938806381951,0.734056483052188,0.420930731181723,-0.03135442284488,1.0804995447441,-0.61329469416849,0.296480286343733,-0.04205289229942,-0.65494865971688,0.409640889366126,0.557691092738127,-0.31970449876857,0.911283900950199,-0.24937529328507,0.0329390953029125,0.320437783955573,-0.19568393711574,0.0330146915410498,-0.09065697683651,-0.01478028120858,0.968761858989001,-0.14166698757802,0.415491527600194,0.366847299297121,0.768597108662569,-0.31846480853726,0.550547264063101,0.631153691954827,-0.59521899634416,0.0460042835061187,0.926561026387372,0.336348290864159,-0.49949320949762,-0.36769748224097,-0.06461981468305,0.242751656324324,0.699045101276896,-1.00601604444982,-0.48292666342828,-0.57942407291904,-0.26390327847342,0.246302496469492,-0.48590466754178,-0.07758569559201,-0.94868272368039,-0.26067063635691,0.198871076430827,0.412863451298658,-1.54590183420189,1.4911596040994,-1.68891590324506,-0.53113749728284,-0.77478605862315,-0.56657866845351,2.14934373355446,0.911679515198782,-0.37550021929352,0.472714326108678,0.184508696410195,-0.34397076471116,-0.66522371945774,-0.60121820896714,-0.77838204841265,0.596463454886332,-0.80297580984411,0.0746580949598991,-0.76617937556929,-0.35808996934309,0.523044913524669,0.457870104477441,-0.64878050821151,0.475551482645347,-0.06159895201113,-0.47115866929529,-1.11680420367288,-0.20415553040023,0.0465143666772592,-0.00710640052153,0.15723459891777,-0.87178430203419,-0.88251687973859,0.155163053765809,-0.09423590676336,0.942679122257126,-0.92616459699083,-2.44638192571817,0.0198834870266388,-0.11508795534661,-0.14640771319322,-1.34091086439926,-1.02955423401065,-0.58519769819709,-0.44153355305069,-0.99208401385554,-0.59783870408617,-1.60779959886891,-0.94958921216951,0.105994548084682,-1.08026203191821,-0.44507626250711,0.302442531475114,-0.59715879260145,0.186544476021108,-0.28997587649174,0.492329844966585,0.102548926922672,0.838413108830084,-0.18219684531511,1.19270890286557,-0.79250188520807,-0.71522568971728,0.653297342815285,1.61490413298307,-0.85730862314667,1.53615760554299,0.561092277827336,-0.00169129907018,0.57077209698841,0.687015625932694,1.35280627718674,0.443608260280086,0.350110921012382,1.27728916783885,0.347358854619826,0.690379132687513,0.320548839545993,-0.26750330422481,-1.1255331525854,0.505667461123345,-0.33589161636727,0.977471515602706,0.895229047958576,-0.37029657284866,0.96768995283604,1.1118843724465,-0.53001605223918,-0.8337803020792,-0.93326408817156,-0.12528379722363,0.0669909288996618,1.31414467274523,0.381516021140698,-0.71795149627145,0.332776183289546,0.227430477193212,1.84456861021628,-1.15306257634529,0.86356199184357,-0.09655187999147,-1.67832487138029,0.464090471820353,0.274914286132638,-0.27336025540019,-0.81782601163359,1.69990641298946,-0.76049706069037,-1.45124393121024,-0.58499186638726,-1.40288845696481,-2.02061045782513,-1.02564960320775,-1.42699639789721,-1.10560022097933,-0.89222210005554,-1.29902945377078,-0.01834582931358,-0.89305852184467,0.970238593465626,-0.5591768430885,-0.82312665182504,0.0310637664778686,-0.72618884663525,-0.88418740968262,-0.34972117355935,-0.64970643869221,0.11148291952168,-0.4582569488918,-1.75432989984976,0.429844008014638,-0.73875086885832,-0.55593162299083,0.644089282340661,-1.22390134570764,-0.52787888764995,-0.2735138834744,-1.15106547524364,-1.79524717760807,-1.08603110120188,-0.9393921879838,-1.2636800975903,-1.15926460934759,-1.60644332016022,-0.33951220505443,-2.61531928684719,-1.84253699706817,-2.19030327393395,-1.20029851695339,-0.34804050556035,-1.19670307523729,0.56606727268497,-2.30625262628432,-0.97043297791708,-1.03538217928713,-1.00090461517474,-0.0815672358879,-2.30290189338795,-1.36121664284171,-1.98643472620783,-3.27578471217705,-2.62394472788325,-1.19139701126032,-0.83666792631877,-1.49708175949617,-0.8807038728528,-0.26623625262709,-3.09010056255075,-0.78608410355103,-2.02454392252942,-2.35977122437094,-2.33059853849556,-0.6572036387733,-2.29214686613512,-1.24323096733886,-1.13583477074978,-1.71379503949377,-1.25178975304982,-0.46657607183029,-1.65700884351573,-1.13482094851807,0.0367637633594409,-0.47982426156276,-0.05379121715371,-0.12056212525484,-0.36678172206831,0.342197734035777,1.19214344812945,-0.44697538775931,0.832012323247983,0.310118506073871,0.460055003411594,0.993548069851452,0.770375842543196,1.13469028726585,0.330467818676182,0.781738206869666,0.620849162227458,0.792320014924286,-0.72094994642674,1.87795316980604,-0.65367691170566,-0.09979242198293,2.08823946068669,1.59469283344606,0.33917104638328,0.77898371424413,0.350930463859983,0.157805092049783,1.33277324346641,0.38820380315018,0.373408715418838,0.311819994876408,1.42690852468394,0.813291399169677,0.719372561424979,1.10869343009063,1.38388687355955,1.77199009960147,1.63407752642464,0.548706700659117,2.33307881822514,1.13615400407169,1.59210127546167,1.42375022760081,1.29222710042788,2.12103180147072,1.23805618175275,0.381381965130557,0.748494301468957,1.31997228477754,0.985700560060266,2.60031567254589,2.30582669121687,1.01575449032522,1.09949987240406,2.35974805090442,1.52051855953925,1.60888715802134,1.67916311145064,1.18406470545745,0.807243614690928,1.69018962800734,0.0756170008870174,2.16053847707321,1.35513257815542,1.2334971544856,1.31545600451014,2.88520839865999,1.70792507266022,0.904345956279668,0.397448738666557,0.868276610689177,2.32316410969536,1.57571708765287,2.19353304609757,4.22876512275296,0.724208260683313,2.46309038271769,3.79282010951288,2.8695806927437,-0.37411709669904,4.64241313078,-0.00196044432862,-0.19788176450093,3.58129005848159,0.0852254692496717,-1.00337935599908,4.99139979644164,0.968744970894055,0.489888933676375,4.25156635077829,2.80972508249348,3.62341373900286,3.24157627061086,2.87001448267161,-1.46640123180181,2.35541950929243,-0.24330720972133,1.29216809252699,3.64757066277802,4.22472758926242,0.0159066450743788,1.32352849762443,3.10248064137919,1.87736820191378,1.28792352820288,2.38610263037568,1.49000289710111,1.45587148352905,0.219530464293117,-0.18258613487026,1.87371036956687,2.21090877818673,3.53295238613061,1.65319711199704,-0.57150722671416,3.35404754663166,1.6768802420008,1.48796017827094,2.95901901512755,-0.17584344696881,0.476220198227445,-4.10390130696305,-3.05219284750774,-4.40527918128567,-2.26330659339186,-4.55548525969067,-4.71066185360768,-6.34509467146093,-3.76598431668308,-4.58843024936753,-3.70161919089233,-4.61413883610666,-4.25575753796869,-4.96689962891509,-5.4612511525859,-3.17577749238846,-3.28599861124511,-4.77506750438857,-3.50622204343184,-5.04488072081021,-3.86530037480889,-3.63864838858945,-4.17154106678667,-6.3933211491888,-5.12916860514195,-6.12176649936743,-4.41426197001635,-5.31722031517411,-3.93636325248635,-5.06779425204325,-4.87042543805579,-2.87996315818257,-5.03969100001262,-3.82112234065786,-5.43583772679515,-5.48807286138199,-4.86964311593046,-4.56382001141241,-4.28086597705576,-4.76310615694595,-5.34650438766262,-4.30923938428123,-5.37298485245833,-3.85376290898834,-5.65898729084565,-4.64569930987263,-4.83465314810638,-4.73746458436035,-5.23550065594639,-3.45183055511478,-2.78991187349514,-1.90614560970252,-3.87886393111927,0.509563656096583,-0.62405989644963,-6.0272865519462,0.0747330642012783,-2.28686814839419,-4.76292368518018,-2.35417966906331,-4.3714089581398,-5.31815507658901,-1.71999058447553,-0.38802539784403,-4.02051262325354,-2.21748438456398,-3.8727803106467,-4.78067085813403,-4.29047632458059,-6.05785812532559,-4.97306958389675,0.406279176902223,-5.59431818114106,-3.94781701057882,-1.11755789390957,-2.0428241022601,-3.83688880791699,-4.27219345185405,-0.79641461972131,-2.34497158464051,-1.02078201749396,-5.26523674815903,-3.09665766439359,-0.84018837460555,-3.70469914313549,-2.59124987633329,-2.46528265651756,-1.1905161878473,-1.55666426456036,-4.08232918061462,-3.30804091487033,-1.05728240473307,-1.0163908844346,-2.96991524653889,-1.31929943588685,-2.44796215549197,-4.17114676834448,-1.63854007385014,-2.7915147816615,0.222712292506129,-3.06652829537128,-1.65488467462683,-2.71016869144686,-2.56692929256783,-0.88199378220952,-2.03360551160317,-2.82222966110746,-5.06688609974334,-1.85354417559831,-1.0941067763384,-2.53305566898662,-4.56661029745065,-0.9902184857329,-2.1868068771581,-2.47797525986294,-1.09876770457016,-2.25693412978974,-1.86968739537283,0.347380792871998,1.01639411823959,3.04287569147226,4.05241266333116,5.09629827282517,6.13357671244332,4.33072426481252,5.89414752458104,5.57951258813307,5.27509079419691,5.74074522311576,4.32893523177013,5.17272797629059,4.08308149086308,5.07528229607584,4.18906353358075,6.1763966250183,3.98986054000863,6.02085859710078,5.15441441116496,4.87169921062622,4.40415397701561,4.50762943726966,4.40578981478225,5.47699955179764,6.40730281488792,5.06398704297969,5.10416253966591,5.35473936285484,-0.47541347844262,0.685088659187254,0.821875697313348,1.12374875692651,0.578991124458626,-0.26124554537567,0.677771030493146,0.980838811571889,1.25952566919875,-0.41363733601951,0.972090017309391,0.871608892613597,1.6124385800523,-0.74537543647809,0.386620278214294,0.492384114139203,-0.01532621166205,-0.49177750067933,0.0106975321668294,0.674432123085275,0.107203282688652,-0.99182728593546,0.750357616136039,0.149338422703086,1.02106597955645,-0.037008059297,0.671077529852749,-0.03114113903181,0.511505771944806,-1.0533229786515,-0.20524103106157,-0.08492876612071,-0.47330630217604,0.688775924427078,0.281105741582754,-0.90583675763881,-0.34909862413484,-0.43872799044647,1.55533047461792,-0.10969345753943,-0.16379568657421,-0.79113703720733,-0.23011477498872,-0.99666295338949,-0.70515150270378,0.852762483510643,1.05372443883822,-0.22869125372071,-0.18545750786731,-0.02661608778579,-0.91985801530171,0.543456319484086,0.115481116057286,-0.59402655303907,-0.46245322195576,0.242431355167645,0.432332359078201,0.0398287915726668,-0.69081230203818,0.721305197335087,-0.33991834701745,-0.85186757345305,-0.60310341512928,0.73933749353808,-0.60451801137006,-0.40700356021359,-0.68385164259996,-0.24918802259715,-1.11473683879026,0.381966520648721,-0.93590405709075,0.598181037319283,0.281763497858789,-0.15538031212579,-0.79791908405021,-1.1726966965711,-0.21817369493396,-0.62662081448763,-1.0048530962615,-1.93391051443532,-1.34673479836289,0.854118253051402,-0.98247584070648,-0.12390985727074,-1.26785630967442,-0.22269573386102,0.147492718288841,0.694673444735544,-0.38287876480409,-0.28125188544936,0.298644211452432,-0.35132653715909,0.193412635424368,-0.3574246195323,0.882152293462972,-1.27692106287326,-0.61975728510619,-0.84519694943094,0.212408445610358,-1.49644701783203,1.19346230632526,0.602963302110194,-0.99208137255342,-0.03835826792033,-2.37790568114916,-0.14988278946116,-0.72205385617095,-0.45089828351748,-0.87690966453051,-0.52316088112625,0.0240133359080417,0.19626899463572,0.11921457468016,-0.49780986396091,-0.66323681639903,0.290255440617756,1.23892826623253,0.483724211911924,-0.76475983524647,-1.04657791112388,-0.56304514133026,-0.41695720654103,0.339059497484684,0.450844160908618,0.834930901603644,-0.02314775593981,1.42591858413923,1.53169403192248,1.80707485954881,1.7453762040944,1.10817932670526,1.79972212662705,0.644341076029945,0.102473464272821,1.1858439041013,1.45602157936752,0.768857171064261,0.0851534556102169,0.598598142569291,0.825479179383782,1.22247032229154,0.693344847741403,1.62361581984235,0.080976932862441,1.47737656162216,0.785114036793731,0.995572852808696,0.357655700529402,0.440264014486662,-1.09396371523813,1.39633314063312,-0.15634066369871,0.817865958254316,0.541882316709907,0.200130156924443,1.03170069219242,-0.41190396961288,-0.8630622855276,0.588546908827388,-0.22859759370389,1.01110403756289,1.82281113448933,1.0881878764014,1.13628978545257,0.877895887416819,0.0818555278495853,-1.00166626243578,-0.70540631646252,0.680937244740745,1.35206523299318,1.27311509258009,0.307650822856414,1.0757264063587,0.597135014587944,0.585290147032401,-0.0398442312656,1.18177928231246,0.33043131439808,1.51360730392541,0.10931309563789,0.957562375590993,-0.59894832187063,1.15481459825287,0.954309882831379,0.38883847878473,-0.29864464010098,0.0109650809273937,0.0724171363467394,0.859444337820104,0.40554147307481,0.791992296892138,1.5841258402,-0.67913681847481,0.0391042200757837,0.595065755583263,1.40450992183437,-1.6462037633201,0.793729277429311,-0.81874214337668,-0.10844470012039,-1.03304025666071,1.46431712113859,1.77920735473219,0.573758763947209,-0.76792190518469,-1.12609580298105,0.750741084202209,0.0672529979778204,0.953341003937008,0.475717797414428,-0.35276545057965,1.47267614940926,1.2968352606983,0.263927600112818,0.342540656225848,2.11756940643219,-0.59095604502112,0.632682297512411,-0.38502686968534,-0.31808082709898,-0.09996470399358,0.1246204393403,-0.85909235745276,1.32488907063336,-0.31443549911366,-0.88193860817543,-0.1329481392453,-0.24043303098462,1.68811820394536,1.52766439651804,-0.10884055403778,-0.76594848093579,0.952170830202143,0.71633784076878,1.04719975870361,0.146673082377928,-0.45847180667656,0.573766528278883,-0.71165983835767,-1.3253240454449,-0.22787875229641,0.520879205550524,-0.0813748772656,-0.3711343648678,0.0538536757552896,-1.30187025601702,-0.36655612357702,-0.01008913668607,-0.05187256320932,-2.0079228460629,-1.32816076533541,0.333578227271465,-0.20090687489558,0.432962653204802,1.12641600157556,0.115074152821794,0.149673779921321,-0.16207593292967,0.19998258728067,-0.42766397325762,-0.02324098947641,0.249928662857883,0.0223212984158217,-0.10154034010614,-1.41037762623148,-1.7881584366717,-1.54310976261019,-0.23945018983746,-1.21588039543346,-0.17156087444417,-1.50950907889044,-0.69494060780911,-0.43170268021027,-0.64344730595957,-1.44864973650845,-0.41147829935858,-1.25216564875943,-1.25300209367505,-0.70106374742268,0.973897951744228,-1.17680175451537,-1.52323152606107,-1.73482710253009,-1.53728760309142,-0.5530954665316,-1.23815736392585,0.0699677931796552,-1.00507515311376,-0.76901871494536,-1.04131365833751,-1.70556971116708,-2.16484058687898,-0.54672881079815,-0.97426754412882]},{"activation_name":"sigmoid","bias":[1.14866791525552,1.24059263663372,0.0306678039414454,-0.38634566605728,1.98717799215454,1.07530240411042,3.80337798203665,0.58089509794272,3.26432094937026,1.21877431217167,1.540343730688,1.29533017427936,-0.44645873104385,-0.59103988549532,0.0816395334727592,-0.14213370562675,0.17279309017268,-0.3473478870509,-1.30895313464441,-0.99685365002102,0.710031145094793,-2.5463895226332,0.886840264349738,1.06149348866064,1.14838894567618,0.0128150432088925,1.20136511901209,0.720332356541271,0.510431831057448,0.790157252146073,1.56491607011239,1.17215213857026],"cols":32,"rows":32,"size":32,"weights":[1.06267668939967,1.41852401690005,0.598835370153733,0.408639919522421,0.740258554843258,0.112001180363317,0.407553250753838,-0.7467399095569,0.817285730886304,-0.2236126100679,0.260498174132455,-1.13330862809011,-1.07238058961261,0.405413090522447,-0.09738693607547,0.17723616633778,1.09717225909469,0.82114908490659,-1.0280030280343,0.223259409677055,-0.83366141537581,0.838613516706324,-0.53327256696255,-0.53784830981628,2.2506314468277,-0.1347812013143,1.09024912391571,2.78134495422244,2.29167275279884,0.359094788142206,1.20453309830892,1.09861285387198,-0.19336093419173,0.708561840469124,0.90001058677438,0.14601408402948,0.33151677861207,0.617667226416046,-1.25820139141314,1.5093721330691,0.424932804065964,-0.59504045108889,0.316403103743817,1.20206188236056,0.313944857765751,-0.11733167589402,1.05851716593528,0.318591839799346,1.05617500869224,0.141602240976605,2.18382898232223,1.2070049984444,0.746435861001301,0.726653852889958,-0.62327592500177,-0.67446462206638,-0.62329997587142,0.949138957049519,1.20808153170764,1.87482186752944,0.00412934510443825,1.15471099680846,-0.35287953360736,0.258589676147442,-1.26116507449097,0.577888496379717,0.555609967266353,0.466518024343058,-0.02939258156724,1.05425976355125,0.464093273232263,-0.66410144711784,-1.8985572972846,0.0144832531568749,-0.72865443452695,-0.75171721497705,0.134843218124867,0.174726958907754,0.5361653110108,1.26913496419581,0.494803320277479,0.234327523613048,-0.47029652408032,0.11358513741754,0.589972278360699,0.506551368714025,0.525012163215573,-1.67187410805051,0.632203397732724,0.614180662895934,0.986388574903742,1.75267731208724,1.16103789970519,0.311529129279281,1.34966694461242,0.857565790519385,-0.54861390676417,1.48355473270139,-2.04188449685413,-1.41066892324451,-0.80994427141807,-0.10058537360171,0.0507862081415773,0.382753262491685,0.599375493280682,-0.59588424545671,-0.81392153052777,0.261874745046648,-0.43716893966801,0.253448987321681,-0.86971334948896,-0.75114979757723,-0.59368381122066,0.106900175357516,-0.48366305885121,-0.95287125151853,-1.46090136023245,-0.64275809270258,0.6696189966601,0.122707932304247,-1.05536020275076,-0.62743886640172,0.86679288789676,0.0146364001028487,-1.08966058214589,-0.48547659316184,0.511781424651683,0.847002753874647,-0.53938983548288,-0.06389158532244,1.09262718223971,1.26624787412709,1.83339416707902,-0.47594573442909,0.83388431598795,0.99591624281261,-0.43276869633535,0.100150695399344,-0.67114927113319,0.750033861540251,1.30885212756759,1.32199773925801,0.55917465266019,1.01138184324495,-1.70785507435495,-0.00123186516943,0.702379875928663,2.07867070996292,0.574157135352804,0.733779610765029,-0.53951961772752,0.0975437346046485,1.40414908814987,2.29502009078851,0.895245246782899,0.791152014464305,-0.28659414353411,1.00990442182311,0.0626065852342232,0.393764936129489,1.07677888433861,-0.10275553420196,0.262677382936259,0.972847774813773,0.899507865703542,0.367442080145382,-0.47430038054716,-1.30285420131645,1.00920194058478,0.921517992866341,1.12626490825298,0.498663346828667,-0.96133352245404,0.953552243947591,-0.14088430560642,-0.91123033111802,-1.03042526859069,-0.36957311842162,0.884659566999953,1.02696677299459,0.097379816816981,-1.09774538406648,-0.15879518984891,1.53680208856462,0.774802539272988,1.4702688766016,0.844240087202893,2.06692677846795,0.220461086349316,1.07403293566849,1.41346428029756,-0.26874655545203,1.24122125119994,-0.14182812961026,2.84316823663097,3.93491626687811,3.77757793760091,3.58024815333669,-0.42028713291718,1.02041874098044,-0.2484278602395,-0.10744591077617,1.334469260462,-0.71297293119531,0.828837079193276,0.0021025182583275,0.708937805294579,3.49029660395216,0.343841894377967,-0.82079886306427,-0.46064520889631,3.66787801671043,4.00916882390098,-0.61614788262418,-0.30366044093157,-0.0487962591077,3.65532604847759,4.25947152394819,-1.72839205927779,4.19052028332348,5.55896386053633,4.12717990241706,4.38479615324805,3.66275231003091,0.0660128305210169,-0.15888928626085,0.860148233840488,0.0518504811331611,1.46279975659073,0.982736976212067,0.460386307976532,-0.55251985418598,0.328604595931409,-0.11512722548633,0.575966641178742,0.491244295166216,0.426671322133693,-0.52719332719935,-0.0824464545261,0.558817846982179,0.0643614695353448,-0.8804903870176,-0.3292739874762,0.843561869474721,-0.23296751708615,1.58427432761127,0.299180881806784,-1.07141886875065,-0.6647241834573,-0.42651039499884,-0.26206610050592,1.75770904794842,1.30924283578282,0.278423817794904,0.395828071864032,1.25201529732694,0.286802883180156,-0.20168844226774,1.42025685827767,2.4000822592363,-1.02420381210193,1.17044405831926,0.836593162806897,0.422174986358496,-0.53789334795511,0.073419511391908,-0.98090095290624,-0.89912379274097,-0.11346247358425,-0.65007635894519,0.584429044698729,1.26190806469125,-1.01419414143126,0.961131375404044,-0.03906111297627,1.57166732007079,0.640079413056255,-0.06904807064087,-0.25572492760075,-0.42807630395864,1.97398997506242,1.58507630568723,1.95995760105871,1.49580403568751,1.87831660782751,1.51737404823527,1.51941678335822,1.74168677106796,-0.05071539240941,-0.34379033814589,-0.27804125589637,-1.10909401182172,0.685063572964317,0.388196948703733,-1.23812960318608,-0.6651678433737,-0.12670497966095,0.154081709962354,-1.41318987934975,0.0241103914022827,0.0654623640393754,-0.15487216373039,-0.97879356425687,0.736062186215011,0.607904633706925,0.930631543808333,-0.57037110306388,0.144864244481968,-0.44347803756223,0.354545667105516,-0.20771481585388,-1.01409295551873,2.38744506263387,0.156510934556997,-0.1881684825473,1.63846853262233,1.02153209526341,0.641677575836771,0.740149849498598,1.81797229020251,-0.81392254913198,0.650234213021533,0.0925262854465222,-0.58665704597203,1.43139105589304,1.17108872438545,0.989613420685836,-0.12675916909533,-0.93400933094395,-0.7618637687351,-0.11661328369784,-1.14669512787701,0.402572160122719,0.105671717784757,-0.07514001089216,0.901386652275749,0.600798272092975,-0.56669362772996,-1.25548757192638,2.09124810786666,0.591353141554147,-0.49506494438255,1.60310609750415,-0.2426922870804,-1.45831160953907,0.53920034254907,0.520995696513662,0.971596434784441,0.595478853329559,1.93721043174707,1.16057204597844,0.919437563419263,-0.31912520252288,0.548254695523687,0.354367714117424,2.4099396888216,0.569611058397583,0.098898446132377,0.0194427136973756,-0.04656766363924,-0.63430162844029,-0.32788927171646,0.980777207830345,-1.06938853607631,-0.46576731742175,-0.24874886168103,0.289160646216918,-0.69658654501544,-0.66384817795985,1.30610109408386,-0.47874918008342,-0.09063328083805,2.23093534534277,0.917528691002108,-0.43921388032509,0.00900731107979972,0.633548598708129,1.66637890625212,1.12122992273671,0.387650430282746,1.76744052393752,1.75467404245991,0.841115258635199,0.791441806073249,0.0722693511982885,-1.14980331269605,-0.79379550164831,-1.76686229200861,-0.21527540590815,0.822148043409496,0.59569561821207,-0.38173579756548,0.595800093244217,0.342186702933234,-0.16145983966697,-1.23775263593044,-0.96342369193689,-0.50001989234522,-0.11046652927617,-1.35891966309705,1.65838377178398,-1.51043132449535,0.00768012652812592,-0.63413676108209,-0.34365116183692,-0.01010051944175,-0.72179901342143,-0.29604857131183,-1.33047201396113,-0.70682250468084,0.627147896885137,-0.22252714926244,-0.38634567931767,-0.06089087767393,-0.83753391346439,-1.08000262255834,-0.62436817976807,0.69689256981264,-0.47156518281918,-0.23203103186651,-1.61554867080032,0.771389443936956,-0.70807505768418,-0.84227126248461,1.45592443634895,0.502059223322468,0.0433842978866437,0.815128065025292,0.141699913053779,1.08793743924038,-0.19527578024274,-0.57961281889527,-0.59111399411713,-0.47101904631051,0.467483343749742,-0.0146099189448,-0.07835439031393,-0.09677368789312,0.0837771677324989,-0.44258493400549,0.879401782848357,-0.68347096479045,-1.2311081563187,-1.41394627020596,-0.05638114603927,-0.21729488168255,-0.32573963447642,-1.53345353551495,-0.45653554274266,0.920306261802202,0.229464461599175,-0.79309983452972,-0.69384047499522,-0.35505306971998,0.871501154292491,-1.30111742018359,0.447162436381406,-0.00272041004555,0.198352581992384,0.136167563399202,2.27796941909419,-1.69109398151306,0.870586995429597,-1.58423448817835,-0.58744622769919,0.434545110692904,-0.93973312656685,-1.02075391217868,-1.80496733059581,-0.65808459333994,0.176148880223126,-0.36927263850027,-1.29523088993378,-1.02535145147581,0.300516825199921,-0.77919304404953,0.220005706526394,-0.61062330024756,-0.43952383743328,-1.5495498817985,-1.43473786025553,0.511604587013385,0.682458075841739,1.53288491001645,0.0922512184289875,0.594592006652413,0.0520198233911176,1.57740184324909,1.20951499084097,-0.85399491555836,-0.5743181655521,0.530376725473774,0.0999330725575253,-0.39344218778869,-0.30386226627103,0.275887116257137,1.25124159828148,0.370715107809198,0.0168480972915332,2.4925214888353,-0.42734199017943,-0.71361123558117,1.8527359166008,0.846100695973432,1.37101352845883,1.72126967484001,0.903996366901067,-0.48167091189872,-0.62546114233133,1.19499246038721,0.841241659349561,0.56394362022455,0.85183767116672,-0.89087284028537,-2.12558667390411,-1.44420643423337,-0.04685091523538,-0.24685510445813,0.59979927186292,0.754966263158556,-0.28847124227993,2.49967504084985,0.422372209152765,1.16031498527266,-0.80438107140448,-0.10760646098758,0.767467964210788,-0.15270082107053,1.35273794624849,-0.76796602090013,0.885089252610549,0.633256138392008,0.269372443479105,0.780742115456118,-0.42785737120025,0.740076544302019,-0.42570540267664,-0.20310475159849,-1.66485502861447,-1.11213888333963,0.384954492010332,-0.79549419184601,-0.42055880502905,-0.45531120523823,-1.19297057028553,-0.17623313404059,0.0435594208357064,-0.11214028921258,-0.1535433215014,-0.08642230641037,0.113769061960628,0.300485870242859,0.370375368404838,0.273507624998407,0.349157189966845,0.311720821016106,-0.14678136451975,0.999143940923023,-0.69623501418509,0.486176133077385,0.151944076578686,0.301598946157421,-0.48003049700203,-0.94800295251079,-0.68850005959553,-0.78782661205573,-0.0160246264688,-0.83317293054118,-0.49425906958982,0.114359830630644,-0.31639444851826,-0.53053287899761,0.0454549739685159,-1.04905934633747,0.0188670906942192,-2.21900265600891,0.93753319751304,-0.81662077903684,-1.21475819318419,0.734915024061747,-1.93102786093258,0.290865891112054,-0.33120333356128,-0.10384022163667,1.17055012896132,0.580337114761636,-0.48093415542376,-0.27787358243479,-1.90295483206812,-0.9623349894005,0.275450927308536,-0.29129608612179,1.5636981892761,1.07041494595363,-0.79450279688552,-0.60337788777499,-1.21607705586364,1.16446607392645,1.05763202652181,0.0857531775666051,-0.99474984982887,-1.26470419994076,-1.09277109217675,-1.15102074539611,-0.28382773531496,-0.17223935331215,-0.80945224005255,0.724511151038024,1.39513496197941,1.59228831166405,-0.20227256774289,-0.13253073183206,-1.29438930037787,-1.40301505186365,0.59277229325151,-0.52817946545014,0.673974449775071,-0.15956170544715,0.142357132329713,0.668311502316216,-0.01854486910635,1.52544851979271,0.774287898322498,1.41535823868486,-0.02146843502591,-1.39829655767285,0.136170560113645,-0.54354631720453,0.311145525124526,-0.72107346714119,-0.31739865263903,0.675215102435234,-0.64785400883333,-0.45845674113863,-0.34773516404286,-0.96335116509583,-0.49883384568719,-0.66714263880948,0.766329966806632,-0.63267011409521,0.659562173459457,0.945701377555525,0.0089665356665381,2.03292316382097,1.3738262404666,0.592115187939621,0.122351861359561,0.267616349214376,-0.47780916140359,0.630638357675394,-0.88105268861648,-0.14860309673126,0.653773410805204,0.193309605931362,-1.15975104262362,-0.51707893131407,-1.13414260210845,0.286372270005879,-1.53543975097877,-0.07251290669741,1.46221686974218,0.285070842961877,0.590957368903063,-1.46776739264701,1.20045710095791,0.171087948722618,-0.22748695491625,1.45042520137705,1.68284461570143,0.146905579908368,-0.78299698374313,0.175423075179994,-0.57134872578294,-0.32742010026654,-1.71800378824936,-3.12869901620316,-2.60629270421957,-1.23591916680154,0.255036091854252,0.0296508899062502,1.48927543280485,0.531714514550474,0.078012332892204,0.477750920736254,0.353251465508463,-0.64343543060976,0.0378901144895952,-4.22098330403109,-0.41983735579516,-0.98292385508103,-0.74363596230422,-2.54303685071153,-3.25906585100239,-0.0444983402124,0.257097280590319,1.37034110955784,-3.67117905857621,-2.6460008198265,-1.27402275358593,-2.25360179036262,-3.36790522107841,-2.32544284773562,-2.24548667596791,-3.69904915164351,-0.71661782147699,-0.04728049855204,0.326129685749336,0.531477882406461,0.919215741764817,0.701759641672956,1.03530775951968,0.478945690438703,0.754462233854896,0.0438738232269569,-1.1270913320752,-0.34300095178761,1.87321517033285,0.746509902568669,1.02535292744267,0.878643396672075,1.03861771370523,1.18245610045325,-0.11298806493852,0.717932062693742,0.916313339722575,0.253269931111774,0.36510432380454,2.11387939658408,1.71105969969903,0.195741874465544,-0.78511557243667,0.459402316738104,-0.29091984337658,0.534149497150622,0.029247634403402,0.31605594593743,-0.6233135598392,1.08833022624473,1.26944625662888,0.864663925197664,-0.59041086743487,2.06196248271002,0.459554151264636,-0.02245419308995,-0.0857152524366,-0.77932872459382,-0.23004418741843,0.912115194261467,0.490200206093108,-0.19541884462938,1.04849413720111,0.586992378458588,0.0556689214664625,1.72000516455442,1.82665698191825,1.44840770384717,0.663865002661306,-0.87662589603293,-0.14840652849196,-0.08143631405376,0.617444368198493,1.8489079125958,1.10528294469644,0.691963771496493,0.368604114913389,2.67360632871216,-1.55753892730281,0.887695900437552,-2.1027543379317,-0.10887092762779,1.98432340486606,1.67468124063988,1.11711661806776,1.20350083201723,-0.05274123397654,-0.71333639065413,0.394116265250584,0.702440383552453,-0.28972021397497,0.531625559268424,0.633563952248748,-0.90181449357774,-0.1145201220803,1.37533183769889,0.778285763055706,0.95862138163494,-0.53062774447703,2.77555064265301,1.07101587569168,-0.42981481704424,0.844032710912132,-0.92107192563155,1.33528547575596,2.53914670923594,0.728358035044438,1.66360707772034,2.95089030753056,1.18773797554063,0.346567624504928,2.02218299984079,0.285562360364141,0.370992158633549,1.34400381824013,1.93926305261769,-0.43238062525167,0.709429264045491,0.979163603312637,0.851713663833081,0.115864339639726,0.108885038910055,0.704022151347158,0.22906997170181,-0.59123912336389,0.326522834417146,2.07528949070592,0.392405902092539,-0.96848851955361,-0.81022972350446,0.560772597735107,0.481588780199662,0.375065712008993,-1.05389351704415,0.404545957638546,0.214092143260202,1.24008842769032,-0.19157621897391,-0.20682984321386,0.505171931278615,2.21085792014465,1.38770070193368,0.292836388544762,0.513571174718388,1.20676554403121,1.059534736585,1.33912740869196,1.11006092064201,1.22517184901264,0.644964850304212,0.0626930768267215,0.42792145984121,-0.79388842177967,-0.66691621102687,0.55495487360983,-0.20297241419212,-0.53034776717888,-0.13734485929694,-0.32320724229486,-0.1680574548996,-0.61727921019782,-0.7661511750369,-0.56842835167811,-0.12633261419166,-0.11255642461627,-0.8429499010343,0.424554360408066,-0.53895969982142,-0.16526532089962,0.851023020039956,0.475494152918804,-0.00443524522513,1.69774564935574,0.199383834546816,0.992359899036341,1.41747053204728,1.49359954793532,-0.30195926001455,1.37222240278131,1.06790807327252,-0.52315626959534,1.19330617442213,-1.00440865536865,-0.54362304837364,-0.34484310247991,0.369039851007592,-0.62867613987474,0.607570927462932,1.98143574167592,-1.94742185071139,-0.01779052873594,1.32406520708544,-0.15281655624306,-0.23833907389909,-0.58212297947474,0.264547428549026,-0.63180221635737,-1.33058691007031,-0.71644330455892,0.257558238533298,-0.48066830545702,0.542267836006569,1.59671962562676,1.28442628219578,1.13837396558553,1.25631560286297,0.422027011409962,0.642152300341618,0.69172118930025,-0.7945499112465,0.297144149137607,1.0176868174269,0.472277330858015,1.40116939086961,0.557471141449709,-0.30722127428803,-0.1528663805695,0.0954144198300602,1.3330637727643,-0.38874089070787,-1.28149427642581,0.392391852354298,-0.99711647146951,-0.06029193223286,-0.9457265632267,-2.07849472101491,0.774267507596877,1.27755080896961,0.486417804071693,-0.54977342291287,-0.14913621651629,-0.22544902936801,1.38588734045459,0.447267696391774,-0.63746669728968,0.132643752255435,0.51116259561366,-0.75400543282076,-0.285785781054,0.964450093201605,0.442187588140114,0.910573997493495,0.884760180150554,-0.11511283202939,0.929456983091112,1.2476855842363,-0.70888883442288,-0.50802434883361,1.14059090001356,0.263032213033838,-0.60922391362608,0.377664942522389,0.596456061081826,0.316017202009802,-0.48880026612278,0.860872058097837,0.501805297933084,1.28085829321879,1.1764853210602,0.240743496755115,0.39873755493238,-1.50119777153774,-0.78551255006483,0.299798596731854,1.20055459827829,1.07944750569451,0.536264718083585,0.63198101158453,-0.11484076866858,0.326828534649461,-0.26267617670344,1.58029423852877,0.00284576945451038,0.849983919322153,0.473042160053145,-0.59776469017813,1.31586890326635,-0.93974654460186,0.176910748780674,0.11714303589273,0.293211488525751,-0.42833122235783,-0.48282574428941,-0.22745062752799,-0.44076422005532,-0.57353798409276,-1.48950822432053,1.03735579340417,0.876138431074305,-0.23253704127874,-1.23561022768125,0.23563409489505,1.09840336933529,-0.16760122905722,0.558797813439315,1.46189460237123,0.366316062973905,0.00371203431995621,0.664262763792904,1.41713463393398,2.01555777298009,0.731644985666591,0.729388640128605,1.77787926599768,0.522127968045777,-0.00803477442964,1.12552661994025,0.684785380104222,0.134807496001152,0.242389390967009,0.149993712327185,0.644194068533303,0.306069499868435,-1.33181355944181,0.0591819230461078,-0.46579799315565,0.0459475629618843,-0.54115909379173,-0.7228362070817,1.49896017679644,-0.05789614070384,1.32546294293136,-0.29978823818255,0.748850433578074,0.96797705293008,-0.06811555438236,-1.53908914092121,1.40534819502567,-0.70007961764488,0.115935712491034,1.09992275085499,0.981338456931307,0.629253273906259,0.576724875591748,1.08486505509692,1.24305118891994]},{"activation_name":"sigmoid","bias":[-0.49189997129744,0.360909083044188,-0.291781001812,0.228237318813481,-0.34752796231074,0.353980188496366,-0.18642943235955,0.347072864608088,-0.28747234848688,-0.38536634207322,-0.33417311081263,-0.48142985977197,0.621980740871439,0.209173267879213,-0.48875949839896,0.342292061497821,-0.65704702131918,0.161656147936212,0.15744365332469,0.865102204639411,-0.0174770238723,0.698569167391854,0.432785057474442,0.843332241931648,-0.46431558880256,0.922203802213894,-0.44279596164566,0.878632007758752,0.620676814692713,0.955153918906178,0.0805096242297465,0.751187434458649],"cols":32,"rows":32,"size":32,"weights":[0.490795388159228,-0.47059601657905,0.649498756546981,-0.99929359990654,0.734567763203839,1.5978605785566,0.11946880991748,1.11898643301147,1.47560530512881,-1.02187211061729,1.43071781194469,0.587823031424143,1.32817166384337,-0.90270039075792,-1.14756111852693,0.0646240856893472,0.484277430143061,1.19909856581472,-0.18828867051699,0.867661389201337,-1.49968920921473,-0.57042982712709,0.741348002490729,1.69504336252366,0.149388521040992,0.107591668010786,-0.62689757128876,-0.04781909454197,0.735806945137835,0.0824420269884439,-0.77857013554305,0.653281767261822,1.49710264583831,1.16466269757527,0.361513966538888,-0.68600282354342,-0.04208027923618,1.36527866398684,0.834434644756083,-0.67491516464196,0.977055408678223,1.22665708562416,0.60457683948462,0.524154184779787,-0.85164142364027,0.684598762740327,-1.27553778514508,-1.09771864767898,0.809252061619836,-0.30642540060683,-0.30590327945864,-0.4425378322652,-0.05887117758252,-0.09475777766219,0.83792146425785,1.52328742197725,1.56020974639257,0.298931233787946,-0.83038225637468,0.187895985471241,-0.60477941754165,0.385790312815327,0.516488552558189,1.0951973882839,-0.05231926726568,-1.35994098974437,0.587627136066784,-0.38780547169991,-0.94964114106006,-0.41469078843764,-0.30119679592572,-0.61822550877815,0.912452201052056,-0.26852981656774,-0.99026839724992,-0.04933222980685,0.996089748758829,1.08278533962056,0.0673562733812769,-0.52532386545292,0.666267675452488,-0.22682896764117,-0.13297820067849,-0.45522342255053,-0.98979615873315,0.544016129003406,-1.40478195769957,-0.18525461429526,-0.65028899576803,1.33823940027322,-0.01504639312137,0.595209197835513,-0.22961016016775,0.496304895900834,-0.55121228585222,-0.55446363703615,0.580202153565934,0.456022523245339,-0.62679123222362,0.370933317712766,0.939639955480802,-0.25547064159241,-0.05093774442742,0.200551440680287,1.27801666006316,-0.3332943627689,0.555267839125605,0.264243113639449,-0.6061620629398,0.828395146493796,-0.3202450842355,-0.05366585044109,-0.26337816957706,-0.64304015674476,0.27337438897849,-0.51085494408784,1.22292566544244,-0.95139914392893,-0.20388286650507,2.46198939734307,0.71525326812729,0.803445705789523,-0.29117288326543,0.867482035105797,0.450360209984948,0.566263927964705,0.390028864971083,0.285252200834787,-0.9658032959253,1.43451268319651,0.829875392494605,0.105015443745964,0.414096510516313,0.696633423322381,0.237132967992157,-0.83665178929773,1.25145561235764,-0.40262020969544,0.213141774721913,0.768422856766408,-0.25956359579583,-0.20406899317455,0.624234772680809,0.876928738245716,-0.13343766821917,0.926427541289295,0.140950521688223,0.201493680979967,1.44004016489234,-0.02720642404275,-0.81442638162516,0.887646668009679,-0.37844413745374,0.886322922181435,-0.59292505057479,0.629833534339738,1.40162644439751,0.0987692848933027,-0.14625573407224,0.920838097947014,0.131245583604711,0.145310170350182,0.535370474935632,0.020526335671974,-0.33715011897987,-0.28336739809369,0.539306438339287,0.991531710389566,-1.01803193101574,-0.66598884362849,0.0151761557028577,0.745495379222962,0.409215786835403,0.157203360417714,-0.86974656610082,0.859336489116108,-0.40952228396396,0.726147256146564,-0.13619513896713,0.965394476974683,0.638130188583198,0.343512238939398,-0.36239534718647,0.97667622388413,0.881911048410602,1.11207589332963,0.800258067438052,-0.37047736705506,0.0382373079346545,-0.07958369564543,-0.47657337152102,1.51821497638889,0.239365960087641,-0.34132321195198,0.156978974911926,0.056745694321502,-0.00242980290013,0.814312095985763,0.66137381151219,0.0439732443269183,0.832540502578071,0.746278825709027,1.24241175477194,1.15711887421376,-0.2649390613055,-1.24327728056531,-0.71930821756145,-0.92476675445937,0.52490932244934,0.629604727106032,-0.05501425420854,-0.60367133063866,1.45058809392944,-0.60837657738543,0.359526139397556,-0.34262165777323,0.210410167325945,-0.13764685205233,-0.13858651454363,0.369327155305503,-0.60424208101653,0.435178243630638,0.933519955624366,0.831391223686639,-0.50091331148861,0.110809063004362,-0.71568898580864,-0.3351263209413,0.47728038543332,0.042702256705053,-0.04823374711756,0.305699449110887,0.250195700841906,1.20289342434487,1.41008112263527,1.09714268023491,0.324583229813233,-1.22052099114607,-0.01938428395551,0.549008936831662,-0.32277445846046,0.320813957428135,-0.32272253662366,-0.84968830439324,0.332719706840185,-0.95012438774621,0.512102431362835,-0.72230177585138,1.03633823960898,-0.53263897556155,0.918979175983306,0.354981259183825,-0.53276714474795,0.834142922512796,0.207482828498016,0.666532642092545,-0.44636581484457,0.0471523386160908,-0.794563769054,-0.45389363558285,-1.49165172689853,0.000073836015705417,1.1557146255046,-0.33463903959389,-0.86690861971783,0.271246656607495,0.277775584922369,-0.03188957283888,0.619928256367852,-0.50990013020402,-0.60886421591446,-1.02803371463048,1.09151287408462,0.716854179912514,0.504469942055408,-0.1478096504124,-0.63703817685534,-0.57907711808952,0.349504327165376,0.045785248438943,-0.47271928412777,-0.51417095809443,-0.32582121072694,0.818274405310239,0.189283182379692,0.0429372917470619,0.0619255327703368,-0.35304442972445,-1.27198551123914,-1.00731654530382,1.1889585863824,-1.97553459172864,-1.017929648557,0.394403218710171,1.53315334475522,0.0675743322105607,-0.31180461448156,-1.24950347531818,-0.75469654888394,0.655414752376773,-0.60603159766821,-0.40860702243635,0.0337349773742913,0.467568681234065,-0.03744615067059,0.783051259372015,0.11334519392024,-1.3028212718949,0.141095681264014,0.193851585278011,-1.33871808980708,-0.65341697683442,0.666670460227191,-0.75132222949829,0.347929513532445,0.137742574406318,-0.98704080308437,-0.38269171449293,-0.3851229104359,-0.27271288522693,0.273524082891949,-0.5972661947106,-0.93441505671154,-0.56956316190349,-0.66656783683555,-0.64108444603936,-0.47399214247304,0.0241462952680434,-0.29112531507774,0.235078240220697,1.14826066199847,-0.24288211321797,1.68084511348091,-0.30710424981781,-0.58519891838921,-0.55277721785065,0.924881105849697,0.616444332489124,-0.31857624627484,-0.7134881096694,0.109713703100229,-0.19409091339701,-0.40531829967043,-2.38739675060962,-1.42014686003421,0.796819825950617,-0.44835702586069,0.23954199154172,0.50725237104878,-0.87308619919643,0.302373364270514,0.204308843139864,0.573542448043264,-0.40081429997104,0.990564579488028,0.667507948766728,-0.53503534263936,-0.54161160951725,0.220463578418306,0.78318466672644,-0.97419989790634,-0.54400074857803,-1.00755809645787,0.308323266375285,0.859529614412346,0.366533086104935,0.99470643487478,-0.81997046062499,0.050349801317693,0.385446128812602,0.0973010636722933,0.232405408986048,-2.33645106524181,0.144462178277891,-1.57375922893074,0.540521407489685,-0.772118889424,-0.17565509712016,0.990160566935098,-0.36738263776545,0.00289768613894991,-1.12005581511444,0.691147064576519,-0.68030069898382,0.496577421354386,0.222142001193119,0.0706044985453007,0.127716935907469,0.23327837745639,2.32183347729362,0.275195306372886,0.202857685717906,0.473416035942134,-1.0422969859527,0.594379925845895,0.7329763767383,-1.07508435119919,0.880130579502565,-1.73889318180254,0.102505193155452,1.18024542216603,0.0670360626252273,1.20252276720324,0.646202415168645,-0.75427135012484,0.499474219776627,-1.22067287180341,-0.23211494140274,0.753131203409817,-0.34927845212991,0.573255034250496,1.70202096088865,-0.4206655421386,0.7359994174386,0.0637235893427612,1.61330441437696,-1.08329122592294,0.64474758631516,1.08848618061026,-0.45285258295636,-0.51681414635591,0.605391654906897,0.105094434989065,-0.02299173758015,-0.8722110106345,-0.01985318392344,-0.32912107592047,1.40145127799161,1.40246872228188,1.02227159468943,-0.36916357728555,1.70032332568142,-0.21253785265153,-0.79953842888623,-0.74514542307983,-0.69935407946904,1.29327702732823,-1.27977738837507,0.16896594748842,0.46053572224986,-0.22024838722834,0.168086563152508,-0.48503640477041,0.56915745675186,-0.52777961455764,1.03295332643796,1.41100882334818,1.07697711035706,-0.27758374968828,-0.70731273501692,0.750555802423594,-0.40987796964893,0.582247027541176,-0.57698322905256,0.12136285796997,0.315700805005423,-1.26430045668984,1.94429659648861,1.31273704076152,0.864381214496811,-0.76626242303558,0.00481545570204967,-0.50972242712785,-0.08280187488354,0.469998841924601,-0.65376606354112,-0.15392987213526,-0.42623487473055,-0.64910268187633,-0.23499779462274,1.18408927478524,0.327427182499405,0.469446239021329,0.590747454422169,1.13499893355015,0.582857636978515,1.44044134620326,0.33036024487414,0.0714847566544143,0.623969663602215,0.846969788245666,-0.63133674996117,1.04349040070862,-1.31166192115967,0.149480030722884,0.25962555254714,0.015281437128362,0.557743997380313,0.882443036929136,0.536885919357437,-0.84854000039988,0.709465394664515,0.617981089892569,2.67929547043946,-1.40500166398821,1.5507450244027,-1.92308316147444,-0.85276781506912,-0.45831496413065,-1.09844069838497,-0.02829831198173,-0.47054643059153,1.05194164453833,1.54422797355198,-0.29994397013891,1.14270999207401,-1.13710722978321,-0.43272861509962,0.521186053641162,0.952669802237223,-0.31576644122475,0.641249910507831,0.906538788921347,0.050457481718608,0.305059117575334,1.08491990810482,-1.08885594095121,1.88474205859389,0.394163541070099,-0.04298321279009,-0.6473843338636,-1.41359257240202,0.644225793835546,0.579039586714756,0.0218452009419484,-1.19809098598196,-1.66079163780253,0.189879758969308,0.245276857468936,-2.38438929849798,0.248363128015002,-0.48317018483127,-0.60233063524036,-0.14289134003441,-0.69822799251022,-0.62043155374005,0.571897160574593,-0.32351703668274,-2.59970174137222,0.7724270746297,-0.27440939488867,-0.00801503933403,-2.00573599297165,0.419687450754711,-0.04101634187146,0.270838407898129,-0.16714736808541,0.420059649556229,1.61806987653718,-0.79240153219045,0.807548584827382,0.350265605949263,-0.56412322957602,0.742206758951472,1.2918804223152,0.377444629903326,-0.04831402592002,-0.70127840026448,0.287770752623545,-0.19718024831055,0.118224356205704,-0.60621404318142,0.613614593968978,0.257453459914676,0.41091075789974,-0.39029273968459,0.527478342894007,1.48231539859613,0.733481308079999,0.253256929799371,0.629902844882646,0.646456261192458,0.229705345281702,0.381452970249375,-0.0511681668274,0.601430760303865,-0.33939256149632,0.667843743473957,0.160869366267427,0.237750317552772,0.390119557951521,0.305890681455395,1.43851981404907,0.325999011547076,0.584124963606836,-0.33026354446994,0.858459727910298,0.815385152651117,-0.54291490157552,-0.38554108515216,0.473285069447594,-0.33001535653792,0.60934598390849,-0.73334530559524,-0.25084307804357,-0.09136096329873,1.45337734730286,0.106477025254792,-0.32873812554425,0.19086356866068,-0.16952964669914,0.393487168020222,0.109183850849314,0.95317784560423,-0.19842371135551,0.553013033459227,0.247145087851077,0.868160321823364,1.1876206781818,-0.17084691204032,0.0297032381342083,-0.60543700479434,0.592027703682197,0.387163798428244,0.0784436367813462,0.322519342874193,1.63068206469183,0.866725619869174,0.794682176709343,-0.50883653040243,0.189709710771024,0.534683256855976,-0.82508519006116,0.38474814585063,-0.46247594871142,0.896758155406342,-0.74602494652563,0.350383052894075,1.16208707942331,-0.82296473924841,-0.59934110894166,-1.21844406664508,1.42055446627089,0.339734458778841,-0.45729056135814,-0.15025467036696,0.229870354603375,-0.36326819220734,0.643213639878667,0.477592847268741,1.06787515457452,0.0209477796836176,0.212588125102224,-0.96568918247379,0.0013944438324262,1.49361693635675,0.0387295165379848,0.478305224433637,0.919004900265014,0.548324516489386,0.974439477192921,0.375572898051817,-1.82540951635336,-0.90955165280118,-0.08569109022974,-0.62293722489198,-0.42020594844252,0.576653095271577,-1.5416251382927,0.468872022884644,0.130440506460489,-0.35143960139829,-0.59629809036108,-0.53456335986602,1.30997115710287,0.164317615439134,0.418596779597748,0.593555799082526,-0.18630169331183,0.349599203009868,0.0834805609399078,0.536563587962955,-0.72751122487057,0.25714646668888,0.31121630016103,1.28586290540836,0.172777083712614,-1.41080630058007,0.108153472793732,0.957901714048086,-0.81024206711897,-0.88539045261172,0.172231228265766,-0.91187178158845,0.594326137068843,0.516724111475509,0.64991898482287,-0.65792370375492,-1.09897502522157,0.0182477888784687,0.308335769707779,0.230448779288933,-0.18529980404702,-0.45874434172422,0.65024103749392,-0.08093420066642,0.0670831471216812,-0.61670158182419,-0.71154904715556,-0.86933555361611,1.01931318812607,-0.04924771737838,-0.99609779129876,0.605436503365623,0.450914801488868,-0.178279121038,0.572348949024358,-2.15763300120589,-0.11780678159157,0.57814604489757,-0.37118522568308,0.851109997550066,-0.54107228071613,-0.41068409198872,-0.06325471639241,0.686082699237348,-1.5574175472902,0.0589866410709527,-0.67611197152868,1.08167522879924,-0.37924141560212,1.35988294840528,0.95437483790999,-0.85884338561688,0.894123738835271,0.0308644694855568,0.95819887725118,-0.33189569948438,1.02470323097557,-0.1111153282721,0.156034098456661,-0.50450141235156,0.45771146259513,1.04908992135654,1.64204311909671,-0.20460559570663,0.310779831301703,1.22930965849386,1.21885032998849,0.0613452621645477,-0.27746634521387,1.20064372428209,0.229211725365403,-0.79292300539709,-0.34253373306401,0.640864840687076,-0.2387900576917,0.645992993136638,-0.00159873330877,0.368702551431634,-0.63929446435641,0.763101158939092,0.0864252092752779,-0.41117156476829,-0.57967389629268,-0.0732799046308,0.317274852901745,0.157698456695617,-0.25266582096713,0.157630168454195,0.0809025231428201,0.181633795378273,0.554503621487241,0.152152041326393,-0.78103691564344,0.839964214251228,-0.2386330574754,1.36211403863692,1.54176686019927,0.390421571045049,0.587918804280521,0.171403894180675,0.0089495911657108,0.0896879525177262,-0.11189841557437,0.68468910968521,1.23851728970064,0.401831262358262,-1.32293754160529,1.12817403260298,-0.82976529292293,-0.50563227803658,-0.3623204075788,1.04972420728664,1.30161578564375,-1.1227340502519,-0.12450854727273,0.489956107990881,-0.20401834698465,-0.11538056925507,0.588868820754675,-0.27003108598136,-0.22780683774893,0.781648793084089,-0.04044725370887,0.216881971884208,0.565319653594272,1.04192634676866,0.903017433854441,-0.43628793410134,-0.65478402771755,-0.56487372083772,1.09955619894484,-0.45987826669975,0.600639331232898,0.993316986616463,-1.29113828732227,0.133715256499145,-0.13222479202475,0.7602403622109,0.288295802346986,-0.07007409075661,-0.16613552278705,1.34194771179336,0.299456701891284,0.785460760332224,-0.07370649575069,1.2299318411793,-0.44526348729596,1.24327306433462,0.778664907950988,-0.29167581964891,0.960731746182684,0.796013076939711,0.776393711264123,0.388038302650824,0.604413551008238,0.524501820759799,0.153488026995744,0.034730040215245,0.29296253481059,-0.54976477273915,1.13376706213543,0.645321232645906,-0.22818927681313,-0.259015784867,0.111732415870058,-1.73042990040587,1.28107489045608,0.811527420882372,-0.78747576152241,1.04961214220567,0.579688579598394,1.38046373858914,-0.71431994603323,0.0430465324351197,-0.21212510010352,0.918707560758894,-1.02188483525299,0.601792556439546,-0.49763933810974,0.169314023176473,0.509484028456384,0.00933770794755833,0.676282267033896,1.02994756361471,0.0856491168756137,0.719325433906937,0.532447482486746,-0.1394458957654,0.350000392427746,0.515342784972452,0.400973927635413,-1.77658920869954,0.439706688535837,-0.84399671732925,-0.4621331675618,0.527524339089795,1.7346651585045,-0.46003489677319,-0.66944380358848,-0.2364718389364,-0.0753873766074,0.567751010925925,1.69610823503674,-1.36301420990904,0.690318841377453,0.850423562663228,0.37396739309538,1.37420130658401,0.575515273511858,-0.04488098124369,-0.74244978201013,0.710047102605731,-0.78628384710928,1.22727384088834,0.867794100250629,-0.27611634434732,-0.04010080479274,-0.04926756812402,1.61530821274096,1.19465353768237,0.578855845753619,0.553432761800806,0.523060272190508,0.777965844902498,0.75731016551428,0.486133508405838,0.244468275578216,0.728232634772946,1.48582755882867,-0.29912174389192,-0.22331430316456,-1.16537384994397,0.438965988918075,0.811368852761322,0.325508783338465,-0.24502087128899,0.134596920422735,-0.02280948477829,-0.10408624262424,0.931856492625751,0.110375057938059,-0.01771665921344,-1.24296834337473,0.0289595171190937,0.990620101744652,0.877881461788092,-0.06322098467918,0.999060283010062,0.461262312879668,0.618087387701515,0.633884024778929,-1.08166880712976,0.041733723454672,0.102920424601882,0.748087393599146,0.24583276354144,-0.47437621666915,-0.04978282728875,1.09515115857547,-0.0854404696355,0.747744567253554,0.507456074477806,-1.17255438095398,0.142859213262682,0.403904095372819,-0.75416681274436,0.500352651608274,0.0408799726860322,-0.00288025933621,-0.21722553712594,-0.83649492609081,-0.47128207687491,1.33183943268971,-1.2052991252145,-0.06656527247993,0.297528975731393,2.09638972936357,-1.12171097955273,0.302064771106573,-0.3324746388477,0.772442336527442,0.0361371967875905,0.776176224666194,0.0359000034794611,-0.73081103035451,0.495345927749817,2.45996089226265,0.707241328030427,-0.14263066396215,-0.47036601722515,-0.92187706886666,0.786520589575128,-1.55930235945459,1.60458072426711,0.0735587626009317,1.08777844270727,0.559878313578038,-1.74323636895451,0.435525316112188,-1.1696234718691,0.587369423746073,-0.54784079539777,-0.22456860547495,0.762365429208236,1.08137200166165,-0.36387653605771,0.48781343458762,-0.41379696614719,-0.67683845327952,-1.75647325970299,0.553238172318293,-0.4112173572962,0.160201081774862,0.61941427566657,-0.72657794986177,-0.19780272509308,0.315180543783664,-1.55202473052991,-0.55841337281261,-0.69075274652574,1.16727128523644,1.64654902497408,0.248901094476427,-0.20697734139869,0.582770771874699,0.0883068274444394,0.76052377688878,0.606271942082656,0.444646476401019,-1.31863455563202,-0.62250848956834,0.920963900292765,-1.14514727207264,-0.40273372106973,0.446954323789214,-0.46055561555131,-0.00020719478779,1.3368665168557,-0.02329840848104,-0.85757379644585,-1.61062031017319,0.595411103505771,0.0479095102436795,0.513111365470622,0.574337317121708,0.40935222335298,0.171279866303701,-0.00699158344775,0.0538428813655197,1.09533516776518,0.986918727352387,-0.28912182823947]},{"activation_name":"linear","bias":[-2.37744543486216],"cols":32,"rows":1,"size":1,"weights":[-1.02105604173182,-3.05749346420686,-1.40656628351713,-2.43107040345162,-1.45364401534825,-0.61799985338908,-1.93954142792504,-2.06346087929562,-0.48476939474082,0.468442712169093,-0.81068261329226,0.201657007912699,-2.3048572294641,-1.7894001751038,-1.43181565682132,-3.0658267377494,-0.40540602541148,-2.92216183803794,-2.13140386262048,-3.29240019026828,-2.3006556925941,0.161613146124791,-2.53640033607097,-3.22503990267212,-2.57427619835094,-3.08934278068353,-1.20517124525623,-2.08875597209563,-3.79447109293517,-2.75581893184976,-0.59110665312133,-1.03148271457189]}],"total_loss":709.891928710108,"total_score":284791}
