{"ml":[{"activation_name":"sigmoid","bias":[-0.01536351600209,0.00750219564468375,0.0645650247935974,0.0230169999669565,0.0615523590220532,-0.04288934481809,-0.07666858898637,-0.00375950322452,-0.04371235078424,0.046919674888793,0.0454159439071688,-0.00713125968922,-0.09436839560868,0.0425815072727214,0.0239633534130525,0.0954199557614807,-0.07145916266267,0.0510984414715172,0.0270527851268631,0.0280640132373771,0.0167189435802835,-0.01811992172851,0.0144712615793496,0.0785227805562722,0.0902283471733353,0.0662190223984825,0.0654570506033859,-0.08656930420975,0.020164675476994,-0.08001393802642,-0.0854799565499,0.0110868169480214,-0.09608060255767,-0.06330519904232,0.00559256115065103,0.0574253937249379,0.0689221227878818,-0.00367123841563,0.00351869607726112,0.0743714677892008,-0.01922553270948,-0.05402148453724,-0.08365842283011,-0.06510496855632,0.00888414556517576,0.0708246020481345,0.0355988281010356,0.0885330880447907,0.0938342739469832,-0.08994410453331,0.0138641085720131,0.0773479030617196,-0.07045429049821,0.0417759205719729,0.0953405864379229,0.0897269357546571,0.038278079656578,-0.03183044608835,0.00319957269977331,0.0422301193703376,-0.05189694229896,-0.07713824489807,-0.02641472806674,0.0767972902454339,0.0649819196414911,-0.0199646791873,-0.01303250686149,0.0902794646084882,-0.09875226432361,-0.07891692476743,0.0122803112864283,0.0948599165694567,0.0699100599539678,-0.01075930525759,-0.03731720713195,0.0383682319337797,0.0947238951087064,-0.06245716945785,-0.0055891881829,0.00217591144840339,0.0115910384625023,0.062759158991116,0.0744989306741524,-0.08403991323256,-0.00116264052483,-0.08251411870911,-0.02255666408482,-0.01826692796254,-0.00383729895606,0.0146857993456754,0.0935012784529614,-0.0736968635308,-0.09059606104158,0.0140493046333363,0.0987518508268911,-0.09299627089532,0.0458007187953904,-0.07870303984003],"cols":0,"rows":0,"size":98,"weights":[]},{"activation_name":"sigmoid","bias":[-0.13284481628263,0.0398866131937285,0.292601278061033,-0.28757668615546,-0.1710973795681,-0.57947793259751,0.0456541223336382,-0.71775064789828,-0.40284023133611,-0.63439937058086,-0.86670039501382,0.376755809817587,1.03205565355088,0.132233720177894,0.662582776251054,0.37518403119799,-0.32608702792996,1.12057478811102,0.29890210187706,0.0228791453538469,-1.30843389434475,-0.08333053233468,0.548323425075087,-0.01037538109849,-0.91152379625618,-1.2440349193887,0.493781565909689,-0.13095540489816,0.0147049290143977,0.697415587742382,-0.60334079058971,0.164866979249288],"cols":98,"rows":32,"size":32,"weights":[-0.48575646018338,-0.07378985111165,0.323460710840485,-0.42795209464956,1.0554682512721,0.192049999391855,0.420843618760253,-0.0552612423395,-0.26115733016599,-0.40177847654062,-0.01930903341626,-0.10135463180823,0.17210698349081,0.158999184814629,0.076980968258288,0.738790526765065,1.07471320660264,-0.68265998905093,-0.28946231405493,-0.31808092178293,0.338412650975927,-0.4383158204596,-0.50276472371739,0.367117327411013,-0.46660924767347,-0.60537561704648,0.438529416645519,-0.15265271639925,0.642147365641353,-0.01395272401293,-0.5554578240735,0.941488338245612,0.535591961740109,0.169317997777313,-0.0914721709475,-0.04073091427175,0.376735467032102,-0.19796103008508,-0.01512555381125,0.170562374797115,0.656220502279066,-0.41155615358925,0.195811690017568,0.497687683383636,-0.25100597821501,0.913309770130849,0.830568309447234,-0.06699667986745,-0.93597237228992,-0.79742640058627,0.109334045571631,0.0753282439121507,-0.65685722419725,0.206527269879307,0.591192521070185,-0.24381882871999,-0.25206288857787,0.0706027582025121,1.07320838933163,1.13613630328528,-0.01097515761585,-0.38398045144463,-0.18151775484097,0.549639501035424,-0.30444346594428,-0.10422789528808,-0.46521547785781,-0.51551828454837,0.90108479503143,-0.69110113918128,-0.2515156416251,-0.06590420321995,0.400109457844554,-1.31256330128556,1.24142110002094,-0.44308126867497,-0.85605136761398,1.00854156609995,0.156701966062251,-0.15731472540438,-0.20660104958548,0.346685043507112,0.471969706069476,1.10881545811318,0.351720713984094,0.864020643765761,-1.12112314103113,-0.71205221384315,-0.92259098564909,-0.48326874868678,0.0165182474775342,-0.14481062725756,0.737526808628686,-1.1292795308101,-0.49512343625449,-0.40699341307295,-1.48314075605943,-0.00193214692167,0.0938201319515867,0.144709936963736,0.0434103826870572,-1.32522403383967,-0.10561801066543,-0.88470581610883,-0.17306033332276,0.371144947756048,0.929288925836594,0.183343019054717,-0.88534079870617,0.0792362180790401,0.155345608326354,0.179121584474269,-0.60809726015487,-0.26257354222474,-0.66604149244975,1.15635109805424,0.0755535171415536,-0.86915851193747,-0.64305021240875,0.548285366470773,0.200348518091473,0.354135894199218,-0.11009576297537,0.148156362649643,0.232849891234519,-0.19513048785273,-0.45669018195003,-0.34503052375789,-0.36496467630598,0.878261146647329,0.0530637462020776,-0.99318748375626,0.423407988403808,-0.63071133589755,-0.42863405379405,0.205530199179998,0.450016731743749,-0.88283392515443,-0.90224760241167,0.560021698570943,-0.88370470389757,0.119249639868033,0.566031840454143,-1.23860562652137,0.0863800281493563,-0.97638806529081,0.173662445608207,-1.05463411512785,-0.30262898560937,0.613235469914155,-0.26841592005699,-0.23892038490605,-0.56082318381857,0.361116268139322,0.462640580721364,-0.35665972998214,-0.86355640279985,1.03749048362429,-0.03432195048155,0.396695015756626,-0.30870397837654,0.641212164840007,0.797654303814083,0.0821084831947927,0.339825206677093,-0.99289786711715,0.126361532968776,0.719578848898158,0.266474310756357,0.73450646093504,-0.08095188812258,0.0798539178813047,-0.39560005048757,0.218993340556215,0.757602261627515,-0.24054543987974,-0.88749708102555,-0.70887988661598,0.670661600712111,-0.63570125232309,0.222899882472046,-0.4491983532881,0.05131287460905,-1.05198068256834,-2.4501576158502,-0.49664388577072,-1.02320297615812,0.296619064773444,-0.37172485036121,-0.45888184901651,0.0098921699292671,0.0233984941486247,-0.2049669061651,0.353323660818573,-0.27585702739866,-0.05093914615739,-0.31013089973759,-1.43515764686416,-0.51503659517013,-0.30962197709504,0.95014653907256,-0.34370919169894,-0.30390852920197,-0.01024593759232,1.43605543013915,0.174052010343652,-0.43048141489319,0.375172345111596,-0.3134284524551,0.879698379526775,-0.39694019647114,-1.22289590001905,-1.10802909667826,-0.68985974294154,-1.48151484410161,0.144515093086555,0.341313583844655,1.09968905480243,0.159374665364281,-0.69903948123793,-1.24763206279499,0.703191709615441,-1.03022511539594,0.377782999789642,1.46575009008587,-0.04077561927037,-0.91136485843504,-0.64511834089913,0.122690893950111,0.794299385282389,-0.32934447918683,0.414159148159971,0.0916863343726734,-0.29142879447824,-0.415719869876,-0.75564922821266,0.344660992712019,-0.00438958150225,-0.81132917326878,0.118497157215021,-0.46436793840735,-0.26865502355239,-0.98696873275369,-0.85400175085561,0.717101893954382,1.01407934282572,0.973718521938313,-0.0530127877451,-0.48043076602398,-0.44158623298519,-0.09123910214947,-0.24442454607536,0.814068924577332,-0.78069344037155,-1.18470819231632,-0.46108968367022,0.19410845801137,0.741906766454633,0.36331200321961,0.391047655766198,-0.49598813222325,-0.90746861656147,-0.06639384631853,0.360827153097145,0.0973384316484221,0.54358568448199,-0.88674660450561,-0.57538961610876,-0.03297105897235,-0.00079436638169,0.439357110229224,-0.4018276114673,-0.62576991697608,0.749642428689658,0.671605151541771,-0.70761180064498,-0.29375038675386,0.072224407519126,0.909723644760889,0.0951090275537514,0.502923435321806,-0.10654131919426,0.712547419441265,-0.01364246367529,0.398895026883954,0.252388923278811,0.891203751815793,1.03570768272766,0.623902241901549,0.161010020095862,0.515012605583171,-0.19107503299622,0.601467897069795,0.286865902031922,-0.60504873989458,0.108136787838057,-0.30867442974155,-0.9708061082579,0.190363103851744,0.184234067367298,0.108781323061936,0.995856153767905,0.0335000812539971,0.847087442505159,-0.18883878656927,-0.52264190252361,-0.27686521599953,0.344348664413593,-0.27558070318687,-0.12678430860166,-0.37596431342924,-1.45694999154046,-0.70816420317696,-0.04586342716699,0.0853855664265253,-0.27991727051938,-0.70718502484902,-0.27098466475494,0.750884349747108,1.20121010572585,0.782387536625331,-0.14418050386519,0.555877224640088,0.357434624934955,1.54740231467027,-0.37957363929749,-0.12307677024509,0.466950196472419,0.0720413999078859,-0.1671144368889,-0.25031984873827,-0.84002537505823,0.467861507614653,0.156466270419556,0.338394047184107,0.216430755372436,-0.67345561216405,0.461746093965786,0.201480037678269,-0.07169170780738,0.313129652128902,0.722635096344468,0.0351555633777349,0.357214096863662,0.327716964625333,-0.46241568865277,-0.14137500110907,-0.74889951710175,1.22162043844836,0.0894113178308393,0.0305323978026371,-0.90914359671876,0.492327468796856,0.954361065561551,-0.88245046781005,0.557366705110872,0.720005627694755,-0.18342425330836,0.0349040769152925,-0.05910745045745,-0.41945889912756,-1.91182833122024,-0.46284742478305,-0.30822065761889,-0.81592069516089,-0.80074194280901,-0.22483192307699,0.0307247966093715,0.118594077976229,-0.43847084992609,-0.33119401132019,-0.84834599057138,-1.15115398608179,-0.66514126926616,1.25597280345653,0.804992624701636,0.262911663813172,-0.17902783471073,-0.55716574366618,-0.59177408060847,0.335942527236628,0.601048545504515,0.0718403658749303,0.782319840973845,0.510732792155264,0.210142856109666,-0.79509095731484,2.05286478882884,-1.46694121445697,-0.38144835486279,-0.76845393226857,-0.90612359625863,0.536197348897531,1.01086061669676,0.658844061893518,-1.29885587140551,-0.11821451748072,0.63428374655468,-0.58203755219523,-0.83807660876763,-0.19265827553173,-0.63453272569427,-0.04986663106645,-0.68226825685714,0.23542044603572,-0.91975258746729,-0.11208110196759,-0.14017104527603,-0.21620036011773,-0.09175562692014,-0.14479020891241,-0.85363445454301,0.199699181768421,0.673218828163663,-0.06290145680051,-0.33481577675166,-1.60344060291301,-0.7036800296562,1.50758817477935,1.07760333232428,-0.63606592177671,-1.15865451764231,0.0773264633529311,-0.36870123683962,-0.25205848950736,0.156060265525772,-0.68746944856036,-0.67121064191505,0.0452197163372799,0.546180210828844,-0.19429142622037,0.389631736100305,1.51694185850275,-0.35982142246649,0.118201069334226,-0.49493721438386,-0.01898826283736,-0.40062682654952,0.40490823674412,0.757602617477752,0.456349528118503,-0.42758630949214,0.839307657945889,-0.29373501423474,-0.16963075191702,0.249075100916364,-0.66240954316554,-0.48898600576533,-0.7789168579224,-0.51508920535414,-0.77456255439425,-0.5506373672882,-0.68248408741847,-1.25981680546228,0.4559927333816,-0.4699139649198,0.72983532861997,0.437684773681824,-0.14452032029383,-0.1265402898878,0.399841154524301,0.515058066445724,1.1131628430976,0.66494576541124,1.15290667182522,-0.07981220991768,-0.76405789155446,1.16445221873492,0.674041012950063,0.104691242357124,0.752904985748072,-0.18421313607747,0.39554722311959,-1.168020725759,-0.74777428590506,-0.37249148675257,0.303305565611697,0.263360046141002,0.432807833885229,-0.43714059707698,-0.07716533297208,0.447351590501641,-0.47590195674453,0.927520607176977,0.0215178578459867,0.062732696733297,0.354974543363477,0.190630769269172,0.808263229698244,0.930508778373996,-0.0320545594824,-0.16183530755619,-0.86978963734336,0.0687384710244654,0.0859857517089898,1.05707246188143,-0.97392948527797,0.343177647439478,-0.72929850085046,0.35607882648173,1.01039993407432,-0.76253060560547,-0.14594226133427,-0.27155501315994,-0.412232750629,-1.44282075826708,-0.44351830281244,-1.50402670248133,-0.43518151855711,-0.01509973622642,-1.15135144649421,-0.4130805406991,0.557419781426426,0.117444312395105,0.230006783896903,-1.54912312561229,-0.56224801681787,0.440814675744241,-0.29302130481956,0.158844986805803,0.388080889846007,0.171820255157626,0.196679774007183,0.168637806122992,0.234205194636004,-0.89314844798605,-0.17687428283036,-0.68468221097072,-0.44945895808801,0.128522660545969,0.0193839076475886,0.813198694625951,0.142246528207645,-1.33030124236148,0.244110093978575,0.514281907791322,-1.19947856606929,1.10446647582745,-0.01261906611051,0.802418332040847,0.338318633552663,0.23500899235294,-0.3179994301164,-0.65312793924026,1.12091661970285,0.181880692322523,0.832999845125322,-0.05047489264342,-1.03986679847655,-1.419516401128,0.467360006446334,1.05446323270407,-0.37462403349231,-0.65032991871555,-0.53271583016177,-0.19915805398519,-0.20361099235183,-0.4741122913545,-0.81547162051927,-0.35684607350785,0.335751117346336,-1.17415374970815,-0.63578858752441,-0.06316796990052,-1.11017658659567,0.135773401312824,0.92750027523447,-0.17478447440852,0.144770498982764,0.0212709491757862,0.659112505149101,1.01799715416728,0.54705824630914,-0.88967550889314,-0.88728875658456,-0.17422608015553,-0.83316338899168,-0.86149049173397,0.87155888529569,0.486927280098916,-0.246031260475,0.815775448693133,0.323502676614958,0.325492705384547,-0.06937887048475,-1.24894638731699,-0.24695699126265,0.298486797869813,0.0398442156419307,-0.04561361550035,-0.65848054788902,-1.11915508127936,-0.71554949716329,0.461138470331334,-0.25452686289898,-2.3225358017808,-0.5394173409516,0.173649692096238,1.58995670044902,0.0375398167817775,0.558998083901603,1.46332403255282,-0.29126858161382,1.088448785726,-1.15817404024031,-0.75918978030169,-0.18940340369213,0.0601516568899704,0.44371366753283,0.0140367999528508,-0.05719923442733,0.930762771300343,0.700899269832488,0.686801130585686,0.0438182101940865,0.0624464092388383,0.603635875863875,-0.17524352692708,-0.6485944601523,-0.61062924470514,1.11206407752857,1.34473754200544,0.312415213813685,0.173932305129421,0.442524319617134,0.597551230370994,-0.27508503129752,-0.36798720595188,-0.45949796430541,-1.07847549538903,-0.42833705711773,1.0425896901062,0.691022219984707,0.594353952604584,-0.9481277297554,-0.7463953945258,1.06138848231551,-0.58787585753351,-0.92061700981205,-1.10976909319203,0.589758823473346,-0.77562486346711,1.33428990248467,0.698227393721598,-1.31192183210174,0.658041653315314,0.79240443390058,1.13833037523024,-0.57705072062703,1.28523316793046,-0.14089113726863,-1.07148896402246,-0.19819561402273,-0.23061553569269,0.605804221405597,-0.2717689023626,0.189390521144718,-0.0801401527927,0.0596653885563762,-0.36237369213258,0.256704291293139,-0.24570486939483,0.876938465447453,-0.22925457629303,-0.01963469853397,-1.16544220573306,0.110243084324811,0.969213166780151,-1.11746855834535,0.194426789549656,0.0342834450820511,2.10152936914859,0.128716719345432,-1.12943883077153,-0.85325119254646,0.33388812872631,0.452746739042351,0.0368195822313964,-0.3242224236643,-0.51081536514509,0.626943062649512,0.168236449006708,0.412987907059981,-0.12137188604593,1.11150457630405,-0.15407536982715,0.954162636598486,0.862908552206602,-0.00320309818237,1.02871254511172,0.597348038901596,0.334560043027765,0.926813709546456,-0.78830838737601,0.0538235283551713,-0.26463867842069,-0.04860963727158,-0.11653217272626,0.290318742008095,-0.25492161553871,0.477420134079718,-0.14981964575602,-0.24499894429755,0.978047796530872,0.090668576382994,1.17513413440786,0.293697212605851,0.32508832281201,-0.78853690828076,-1.31085739848447,0.137102014090903,0.188186067573332,1.20297585611285,-0.56389587267714,0.677698815090923,-0.02321009347106,1.18461192445035,-0.20698488162104,0.903131853939604,-0.177907171647,-0.22357090366982,0.105670178351031,-1.11023756317844,0.440273846194632,0.731007541107185,1.13859490085715,0.180020201035607,-0.49075090874683,0.0845282253533386,0.314137567239074,-0.90702696543702,0.129635667005074,0.977280233180142,0.0538426299680782,-0.7062106027958,-0.00556717495428,1.08570533224345,0.0119996435949837,-0.36461829039973,0.464650467197675,-1.1115497426927,-0.42970651073089,-0.72201084288367,-0.46727410056609,-0.09576209333123,-0.44603259710443,0.0798637447086302,-0.92208748782848,-0.13027970446774,1.05094810332269,-1.62003971090519,0.825724311344336,0.303543989969288,-0.48060507548514,0.826135249121537,-0.04179220018362,-0.2624390814413,0.158140878280482,0.107565367600859,-0.82735577602329,-0.82663620979709,0.816013152215487,0.356754520802594,-0.15571997165529,0.415754247090445,0.0498081803049628,-0.45559010688835,0.280402781918581,0.665800136555247,-0.05920897025474,0.00118685525547843,0.331404431732073,-0.03868367708938,-1.31095812834164,-0.47351897970177,0.640553961524871,-0.20139171179925,0.737094926031229,0.769339312374289,-0.40576308790421,0.832090611405145,-0.48992319848837,-0.09027801709645,-0.61920003222685,-0.57063507027382,0.897866297878134,0.388258061261783,0.784973000944138,-0.341102755805,0.15926412316669,0.275643074549364,-0.72768819276471,-0.51040287035763,-0.11242236282586,0.380040745839248,0.0974782236378087,-0.49985317487159,-0.40009747434561,0.527965689534874,0.421653863562215,-0.40577456661263,0.270777868190712,1.2957010025809,-1.52403857502231,0.89608436389099,-0.40395590843124,-0.35060764402494,-0.25434108277371,1.36250331855246,-0.92302145649357,-0.19162755829011,-0.3694868639853,0.63323827186655,-0.04908560954065,-0.14879069344107,-0.0280322747235,-0.40252855465125,0.332031619079253,0.534038855475689,1.0186454053948,1.25135047232842,-1.08602873092852,0.185013615243201,-0.5317116716199,0.286620061622149,1.81321607026244,0.425301817122441,0.0944575345069389,0.699702696226643,-1.55562352180797,-0.25813143821575,-0.08960416301199,0.844363192799314,0.34857582185939,-0.83300961588726,0.767006002607535,-0.05927260158951,-0.52752041251116,-0.48527477336824,-0.40600859007193,0.684103325900157,-1.28908508066405,0.229146843600145,0.410590643403815,0.671858944912595,1.29566623006562,-1.76116451026455,-1.52104986183486,1.19459620633596,-1.10495368403721,-0.7875299566772,-1.42773064440588,0.686357396179238,-0.4844723332184,0.12875707376035,0.0302817912721717,0.38847258461607,0.77400951959098,-0.40837419909612,1.86609280439346,0.387496996642771,-0.19885789683857,-0.06141922872926,-0.96437019774359,-0.40920439080532,0.0314463360809824,0.0750494766297514,1.84352421275747,-0.32789839805508,0.935646477960218,-0.01589865686245,0.0390490503983148,0.406379596895212,0.231872585265584,-0.68426199870359,0.745842767257933,-0.19043753581937,1.19605968562818,0.621334272143363,-0.47198177574056,-0.87392237398056,-0.38962814604337,-1.06947120049005,-0.52021113219955,1.07917700736509,0.203820179346793,1.11492565970804,0.465569245504859,0.386048299142719,-0.39495991100166,-1.40807051708538,-0.05433173959829,-0.2596906385919,1.0818877181619,-0.70317672265168,-0.27716415105438,1.10832383338438,-0.16191847750759,0.353960528577328,0.318155250145873,-0.13722873456643,0.156248809934422,-0.65620701846725,-0.62673392138056,-0.02649464607529,-0.23298123343433,-0.72534588278309,0.926914216404344,0.776133029209057,-0.42726733818699,0.991568178319249,0.431256183255258,-0.07719451753608,0.756963151792498,0.428170753499677,0.0338918243756447,-0.52529724213312,0.654382622249608,-1.74770582886912,-0.98238971783489,-0.20030298936592,0.950820464564737,0.252318253064473,-1.23044607624614,0.171118131871918,-0.57213117663704,0.715517669991224,0.286110729576364,-0.77460166206105,0.966141850622069,0.20358919108405,0.0894019235754402,0.634971569217554,0.311817322626879,0.791447512332787,1.16015739183559,-1.93795638155474,0.392351590400349,0.483895974644271,0.843502700813523,0.199860736359197,-0.49843755400572,0.655804459745107,-0.64887340155959,0.953875093513017,-1.47902498405012,-0.35239853725132,-1.06797306360864,-0.80911346677502,0.0961897491098345,0.249486277307659,0.840115877431277,-0.35800158370633,-0.4333256325145,-0.70848052141799,0.28286051182774,-0.51938552277887,0.149311338842579,0.293221003863471,0.538723989651403,-1.39911153946324,-0.70346333634906,-0.31881667707773,-0.01061990456852,-0.15021987252805,0.286073291680619,0.340405537704359,0.478686747014511,0.439370577593134,-0.12661169593545,-0.58063980554317,-0.46715447327653,0.607208963131265,-0.16071954681042,-0.23053095391561,-0.5791780379165,-0.18174254079269,-0.22882569983922,-0.43942407116558,-1.14069854567243,-0.35573284876022,0.48239966362956,-0.32508785516265,0.687393677865341,-0.65936388789293,-0.7811014270277,-0.73718605856072,-0.11994419973058,0.923091014303001,-1.30433493762239,0.617365908993614,-0.31849788352105,-1.04194165553153,0.107111571513992,-0.28692118042174,0.276068068910713,-0.02787292678573,-0.2983525899231,-0.55599122163065,-0.42617469038526,-0.65109974198539,0.899647653150537,0.0754513224709531,0.559995978563988,0.453065904953006,0.00213212292272598,-0.12730899178386,-0.62324896164426,0.424534818148042,0.465891494612548,-0.04575870755803,-1.49175932356971,-1.28657365266845,-0.1004524005011,-0.09771593793241,1.06532148531194,0.22168598673733,0.881183749783762,-0.20242118846526,-0.69265332656941,0.344861960724639,-0.8161006283548,-0.26052508961242,1.32386922759796,-0.39390941926723,-0.87661337198742,0.818720135866717,0.247683148422727,-0.15866606125027,-1.25261779192748,-0.77596377001202,-0.67233020491477,-0.05606794381765,-0.64755134104348,-0.77882731237228,-0.67994746691644,-0.83273440857642,1.29055695378154,0.300032991975544,-0.1228430425418,-2.0181014779811,-0.1090718461968,-0.42733770798736,-0.66560323828198,0.16971018701219,0.203375043511194,0.890044141540991,0.744690976611499,-0.7483117771221,1.11909373135771,-0.02698772493493,-0.06158367709202,1.09790053928359,0.931141591182425,0.321135886168969,-0.48070560190105,-1.24061969651322,-0.62777283544886,-0.63271203699663,-0.66322171153853,-0.03043770654134,-0.20328868635454,0.671675493855214,0.493379452836989,0.608837601374366,0.495625948540231,0.575201819710468,-1.19549639153014,-0.28127833380694,-0.66722591658915,-2.15840832526415,0.453953013232316,0.52664798400408,-0.01562136543914,0.0112022711701014,1.14032719131455,1.16382487478103,0.939183298564104,0.114390450137517,0.865599867915684,-0.93303980127151,-0.59829349456988,-1.25839285121217,0.328069226122962,0.191516554979172,-0.87172148013265,1.24202006943294,0.806492648481368,0.32293895388582,-0.08749575618953,-1.38691796988517,-0.3094054937455,-1.14992415124298,-0.06114653085849,0.582682469213606,0.952787451443245,-0.14029814816056,0.438060294416531,-0.15092108644635,0.298826751535405,0.174677291011227,-0.22020574781311,-0.56647905002192,-1.32947917524511,-0.84816307930762,-0.62818392811449,-0.42137888016754,-0.56620040006557,-0.09908958615097,-0.2930485512964,1.05188614945671,-0.35533203367249,0.740860585279726,0.816069620935423,-0.09276023367813,-1.14779847504584,0.343471499414605,-0.23459773307748,-0.89991063299162,-0.43246728816984,0.607413532142849,-0.87419171843442,-1.15306734062485,0.522563302583794,-0.39738263614549,-0.80936038884268,0.107637233307538,-0.54573165017155,1.05163652329064,-0.82728087974054,0.071514732544449,0.217225090234672,0.122042665294384,0.367927832877017,0.15008860266064,-0.03467349381148,-0.15414759007056,-0.25999793305548,0.180858051143942,0.372922236525237,-0.7413118179376,-1.13324251261073,-0.04838666302264,-1.52045856844958,0.622084172489515,1.10810231983506,0.422435877486757,-0.95108695418165,-0.10239736479998,0.575905497048115,0.505198880435437,-0.40467859260199,1.42075492887991,0.626946273856387,0.502507940571688,-0.34324325973669,-0.39946671548579,-0.30360866612633,0.887833495607031,-0.29001723710217,-0.42891029249912,0.322585710397352,0.317363033174953,0.652321540815695,-0.29617393382951,0.328013303984612,0.19779951002177,-0.07730932946364,-0.21771722156552,-1.31958939370063,-1.30033848981843,-1.40490578611464,1.43453791106653,-0.32396573240751,0.82647997247271,0.042001107156733,0.326823953798369,-0.69731513911191,-0.26341608596472,-0.02332649544467,-0.05679929721192,-0.01675933161398,0.664638631234957,0.244368281548536,-0.62857554659957,-0.41919567898907,0.49742384026938,-0.11043001520281,0.437922862061284,-0.61945551924129,0.601244269507111,-1.01615098037624,0.727900956757322,1.33897450474991,0.539495897601126,-0.13524091192422,1.98785897235663,-0.18615138776603,-0.45792469527018,0.958425088671211,-0.47948282480792,-0.99683960468601,-0.40307946946869,-0.26154605872314,0.826200407805045,-0.1136872755986,-0.71330873013494,0.249124110165887,1.08736827219289,-0.91696970032944,0.744065303732899,-1.0059315826063,0.764641293897809,-0.48879986736597,0.412605404200421,-0.34573865393302,-0.30120575406488,0.170809546018195,0.993516177159082,0.576654861343424,0.159565523892868,0.0404669242846801,0.204119689136015,1.21931804348489,0.0226511460804463,-0.20018859116477,-1.03211974147409,0.907198214051597,-0.19430362904969,0.5122707778217,0.835350021380552,1.18095869832125,1.08264293708139,-0.30074896305899,0.456035337628272,0.52485249587121,-1.31499558062416,-1.08020798194253,0.366919077204806,-0.44847727907864,-0.54692080391137,-1.10402406731232,0.445980432591414,0.773722229405916,0.551485775510809,-0.5978839541319,-0.49794430743867,0.975858297604837,-0.22584065262659,0.190885832148961,0.719962532544215,0.208089554464157,1.88966924304947,-0.95701664361754,0.927536368780725,0.260128374224672,-0.58352460022638,-0.85475849363369,-1.11118055747765,-0.8197911153678,-0.70793044918514,1.39425378175704,-0.91928473653621,0.254071390552666,-0.74466676166638,0.0135696297405783,0.957518920027059,0.495466089296104,1.02587387275049,-0.16671461102703,-0.45640626040906,-0.93521812488151,-0.16880690342939,-0.07799209074321,-0.27453026250905,0.304031326136341,-0.53086462969143,-0.06225681351768,-1.85330980347726,0.00061831240033995,0.923415822082688,-0.05055309207438,-0.68637712616286,-0.1808719368313,1.12247668176293,-0.31375447851353,1.25460820570385,-0.81690839254895,-0.85592055147335,0.237631154513527,0.505559396180176,-0.34175486151086,-0.06697521379685,-0.22764998015472,0.1853868965945,0.397425961076935,-0.17318635673789,0.294893794839082,0.623356121278071,-0.56780133686613,0.293858209359517,-0.17700016344366,-0.4800252408483,0.317917452509527,0.439633267648308,-1.34964044253907,-0.9259143611561,-0.15340472360599,0.136886419851563,-0.41865452296263,-0.29716316845986,-1.3470678626007,-0.50162014042161,0.518035232617659,-0.85880366993457,0.249207406749907,-0.90736745782889,0.268257277535366,0.0634029846136601,0.225203237727026,0.0746511057773531,0.66219314812379,-0.33851639381523,-0.07699669967367,-0.55677574382475,0.0199892895009292,-0.16447303928716,-0.80574155846686,-0.71263285302833,-0.09146907824548,0.830731639415092,-1.14774394696851,-0.78706156319508,-1.04248865472901,0.644142390263515,-0.31835563658122,0.608128919378477,-0.43049211767819,0.720558987887163,-0.21596127089794,-0.56609460994744,0.346587132902559,1.1074842738316,0.229114501949,-0.02469620821071,-0.40477043992917,0.442118062044485,1.11006152871648,0.141717055975296,-0.65522644130493,0.533745257276278,0.584040396241504,0.595476150776115,0.168314800670845,0.118125576803045,0.0360834509902955,0.330208709796509,0.437762541002802,0.360626148930997,-0.07467372785457,0.755755566390332,0.542077202916881,-0.56527988839862,0.876202115113517,-0.01557631590579,-1.00787734670706,1.10600902496334,0.971870986192693,-0.50812313152279,0.119587516776893,-0.49145275354676,-0.48190186712201,0.77443327264099,0.222048208719203,0.508882199822571,0.0977307318676173,0.76970062268568,0.237787171617448,0.0819926024467626,-1.0884581050381,0.0940021454284383,0.515053587201647,-0.96508382389836,-0.38167046103094,0.946605499836683,-0.82608276502237,0.495785922446519,-0.62928344504999,0.693913007865784,-0.03656116869605,0.190360109309451,-0.61628358547352,0.11944124646826,0.444226138390608,-1.21887534068668,0.707072509448809,0.564922304160886,-0.58122011213951,0.767954074008975,-0.81520943974578,-0.3652575159,-0.95131237025854,0.473138480250135,-0.80046599604436,-0.64144356785702,-0.46096542089287,0.670785731115654,-0.50720112304901,-0.13208903035506,-0.45425882988576,-0.11800085564363,-0.7095994031836,0.685117850859073,0.00882093605908211,0.620491487723559,-0.7941998965849,-0.06243378138045,-0.29934814599002,0.00631651234353382,0.5575665251282,0.130904345452273,1.00863323887829,-1.12704425140437,1.06132822431229,0.412726087966964,-0.80110540609985,-1.05466783071849,-1.14024684391458,-0.25624771123183,-0.51647509175241,0.268661501621232,0.275328872833112,0.167541493723866,0.230242445114851,-0.34844865797315,0.397783818039655,1.21249415170354,0.353707000912522,0.0391393372822981,0.418051733953334,0.224132286891376,0.686707165224116,0.408667015730468,-0.04633454095041,-0.36179683351497,0.666154932804027,-0.20973333217492,-1.63208232456178,0.168563831042244,0.0785414268413403,-0.16778846630494,0.476120045428974,0.346881896816322,1.33428646394518,0.878173564109346,0.186048199971864,0.638992842949217,1.41087384671596,-0.497509749335,0.631284976178595,1.20925589663059,0.832424393245779,-0.51149147481096,1.35472786336059,0.388986424129187,-0.39084572210753,-0.57065928531432,0.101795856427554,0.893837371048301,-0.28916233892107,1.10050681246078,-0.83946078471672,1.94335989912765,0.463953393081784,2.07743967902305,-0.25229168581945,1.69795585443271,0.618695864064364,0.114568065979695,-0.67681880396533,-0.67899472831535,-1.31649316120781,0.278699776839994,0.423394248898138,-0.53868440506774,0.855165043901715,-1.14293501418452,0.490205406735744,-1.13596972969621,-0.71572717099372,0.0326605957177026,-0.01268267624278,0.533662547091974,-0.79016749810117,0.822535903973054,1.88541571493498,-0.278804191622,-0.49228291118001,-1.17083281950169,0.653431079650248,-0.69890411014415,-1.41838894926615,0.906879770491191,0.512618293226905,-0.41195179763686,0.0116903381130084,-0.01361164926634,-0.75698846623928,0.793205063728343,-1.25468474133771,-0.47185804078098,-0.71666253601855,-0.40059058096011,0.0954435214025751,-0.10620373558685,0.95404602988596,-0.87058726786254,0.0257212548659332,0.834800944271073,0.28114195719185,0.5703821507561,-0.09427476386484,-1.20195039809667,-1.04239711221121,-1.41352663422346,-0.73465292836672,-0.16715052745782,0.219580571510351,0.237723406376768,0.155066200348976,-0.75950387393675,0.528298611602119,1.31596873094552,0.729245092810542,0.0184819479274889,0.213487600703643,-0.06040690197779,-0.10223192848228,0.378472520217837,-0.77848406029673,-0.16307229314958,-0.79558506853085,0.290465902787089,0.916351958462808,0.189496908314587,0.104624665169195,0.327788781422071,1.0387411076867,-0.05543819416528,0.578483673750859,0.0911689497555469,0.55643030839178,0.294682087132767,0.640354024132253,-0.44344069983195,0.427519494500416,0.594733445244811,-0.56315479416157,-0.31410893597958,0.117366261431669,-0.53404366011593,0.620641398372722,0.460775020138957,-0.43312312564772,-0.84833727271529,0.152774635488034,-1.05588819949711,0.55137441267905,0.574205354741612,-0.28670441735647,0.102238865738094,-1.20767805588365,-0.60341616772864,-0.23635223010139,0.238575720143315,-0.1356436818847,0.41095460607246,0.891121467298645,-0.28174037229,0.795544996494627,0.630395031838804,-1.59952359379597,-0.79485229451167,0.0420221243669441,0.424614859393928,-0.2012081698872,-0.88296534341177,0.324732041680351,-0.87916641389042,-0.05531382659048,0.144018485506514,-0.02514119515828,-0.58792595663975,-0.5526552425796,-0.52535457674109,-0.95075630863762,0.254625248664935,0.657467093583826,-0.31991509126942,-0.21982514119696,-0.68524925537488,0.547694742311957,-0.97534141059998,0.524330481739327,-0.21557937857069,0.210925585785164,-1.03767816088468,0.472863554254097,0.46876212063206,-0.12121389405137,0.752426312581237,0.090062109774692,-1.31211578474628,0.0094704747997551,0.711653113286675,-1.63391439693153,0.503101245700298,-1.0643315964249,0.821924444503077,-2.00562149765837,0.839453589254805,-0.44876359621573,1.21003139431695,-0.42340248948835,0.829927913369488,-0.53334557849478,-0.55341650061916,1.84606562020536,-0.22131433755118,-0.15288555304782,0.252261980757939,1.43023176299152,0.492761599539641,-0.68224994053312,0.387612329347748,-0.93110943626596,-0.09154748583163,-0.52580640737545,-0.31913374357212,0.00375271813442614,0.771743206554789,1.74126387575898,0.490881607537341,-0.86435229311543,-1.40209695240668,0.658812423674656,0.625942709769863,-0.02262780577273,-1.19289446764248,0.84330232926325,-1.61082575970049,0.711228612537551,-0.01507604639636,0.737342925643392,-0.19927029314168,0.00857046622105733,1.37885360612486,-0.2389865215828,0.0933318568432659,-0.67080446302817,0.796430957077328,-0.03828912472182,0.855029270383186,0.478664085843862,-0.27657912012,-1.16891508706201,0.68079710968365,0.684279367766777,1.20105382034318,0.578737888994239,0.822240385814624,1.47713559429009,0.762870196533805,0.538536257487988,1.40808007026441,1.29792324918077,-0.09078054456149,0.585800051580259,0.0329842954045664,0.648774668720863,-0.79010868812126,-0.79262825200329,-0.46578380368994,0.783703346937642,1.02679123631738,-0.42729105912519,-0.5520382643643,0.985004439519989,-0.85702106176936,0.00359551949373689,-1.55646115090268,-0.11644469252336,-0.75028092179435,-1.54130973537035,-1.35507836822744,-0.61373698477782,0.591394554654379,-0.59534470456383,1.04660200057537,0.557010310651069,-0.37274150703976,-0.10827430028872,0.989194617244094,-0.94826661485996,0.144209113969479,-0.14599706105522,-0.54580124854388,-0.19960785956252,-0.83663164648984,0.627105814868966,-0.15264981390893,-0.88747868718575,-0.03172260840392,0.502354182087139,0.115250119778669,-0.70212525943135,1.40279446987213,0.372842220098716,-1.29879959955314,-0.21853160791534,-0.05893202265081,1.30839781142321,-0.50081825190626,0.493854291903185,1.66761809429782,-0.09784983819471,-0.09053087087642,-0.2490842435192,-0.55635655519253,-0.67175136973967,-0.56322461525045,0.284983788978561,-0.36392762277738,-0.53384070538762,0.406645279895563,-0.85748442472044,0.621706494473381,0.295031025465765,0.386319864449076,-0.74349238216965,0.247434421935142,-0.29412668892931,-1.06570844827902,-0.91582352844239,-0.20602994921623,0.770763971106297,-0.47622423374165,0.321111557810675,0.624362493493365,-0.53833625681856,-0.7322088897378,0.517944344084719,0.301561859476957,-0.10181957646803,0.608917473985705,0.930340239020237,-0.30167324578727,-0.03440009943448,-0.76176975345188,0.22392030374098,-0.18342742520615,0.584080486132831,-0.60900648296907,0.257851347713403,0.417050493534611,-0.27604398975815,-0.33345104582315,0.542718819343198,1.21324599117338,-0.69931572101241,0.282171713804757,-0.56927560208909,0.451892851014905,-0.1267339326749,0.244704717947958,0.303714409973087,0.0479790727297644,0.85277351050418,0.183859873927086,-0.41660524115659,0.359072627657598,0.843059358744599,0.910719365625665,-0.46128245382514,-0.28120224031675,0.492694244884147,0.0130547178409738,0.325544821733298,-0.60577546383143,0.0203285125314494,-0.57515233710035,-0.36703426937546,-0.85593192655308,-0.08899498771798,-0.60164985753366,0.285487928460676,-0.14218931674981,-0.85222263572925,1.27251139214713,0.211432599733848,0.788308965362878,-0.69627822047259,-0.61503561309717,1.15671766837434,-0.08378510580894,-0.89337306964886,-0.70261075001778,1.1519704394157,0.41853586291597,0.332023618180696,-0.47752250381218,0.368828120989653,-0.03008733743559,-0.3875837508147,0.596087874461261,0.441324442283824,-0.4083657952426,1.08278555529343,-0.59954450613445,-1.00042204291759,0.37012624666108,0.439318428081977,1.24424964453432,0.528660364138919,0.472804894548517,0.396224863983634,0.913846050114261,0.499789007382442,-1.10424125705928,0.353105484911682,0.808687124300564,-0.31243935519427,-0.37257664836609,0.348684242473667,-0.19634794930159,0.797701285863086,0.770664744125506,-0.89259497105665,-1.12636545118581,-0.41155749771236,0.953075117880357,0.0601739809405424,-0.16114942771235,0.0923987638259833,-0.2265624809928,1.20836693422171,0.168279350687304,0.0135377912410683,-0.27268881151483,-1.58330119964257,-0.1526407685377,-0.68125936396589,0.606949943005943,-0.68887205473137,0.178062448440371,0.674952488435221,-1.23096965262318,0.629368891667499,0.327947387818302,-0.1839836818603,-0.07271113505738,-0.27505335567517,0.122639315286544,-0.52724418808079,0.259973442886223,0.22253374744248,-0.86342516417297,0.058207270329044,0.211169345020255,0.296265656231196,-0.13666768708375,0.443252377766209,-0.07041039640204,-0.19127586044842,0.162856490483893,-0.42430273032564,0.716731113981235,1.07315768773172,0.0194266862873804,-0.67479145340813,1.44561186491013,0.840559235747781,0.197762200090698,1.28391289116092,-0.39316396781833,-0.1082928060095,0.729541275274585,-0.81135322479082,-0.97989576371267,0.012454412009436,0.220932574290579,0.315045684344871,0.14325626092975,-0.33234496064322,0.38670966371992,-0.76741648381658,0.270889312465888,-0.31575060177104,-0.79338497754493,-0.15216022428635,0.00294380903323718,0.114758391150034,0.207214819796667,0.912580169915266,-0.83097756749813,-0.59353827956218,0.608327921150282,0.765472152388851,0.567013231278513,0.165380707549939,-0.12898037076664,-0.36650567219913,-0.13276850262145,0.445572027960578,-1.06228371507403,0.37159276499625,1.52842586133694,-0.56598013352899,-0.67332288536342,0.952154289832027,0.656053434446244,0.269234093786025,0.0599546808696852,0.280998942113914,-0.53171157225713,-0.52414359153811,-0.97622173519784,-1.05201221807427,0.415008355994054,0.365297810576242,-0.85350976713354,-0.04427643487919,-0.3001153815678,-0.43785101072568,1.11641489008556,0.711353443569282,-0.31289252538405,-1.10378719508647,-0.60851832605103,0.42556689467557,-0.42718869551108,-0.36874911605361,0.672081526625358,-0.66092394087123,-0.06814500716732,0.280027194139418,0.51888393905484,-0.12131686302217,-0.82980599904226,-0.3233090657601,0.329531875696394,-0.11150666405787,0.571675581248336,-0.39134920431909,0.0793052007628432,-0.66226800678906,0.828388909858686,0.377345673123091,0.86111789423565,0.384982840754018,0.989867437196164,0.166774950413427,0.535107474577542,1.02125650687911,-0.19264068074005,-0.69892578767329,1.19370066063356,-1.18958501981758,-0.16454435286862,1.58515627431693,0.101400302586082,-1.36457839882384,0.0698086506132718,-0.24699167168126,-1.30309522703198,-1.19758065454723,0.168002545243263,-0.52333982327441,-1.00648235044236,-0.03073919108681,-0.53545552166145,0.193577327109301,-0.67751170141238,-0.72650756931026,-0.53077947864067,0.404296361488507,-0.1902389377777,-0.0353370353477,-0.67774682748747,1.16008019973163,0.673868981678559,-0.0102617406517,1.11947311260346,0.314575409014345,-0.1297889316307,0.35774551642013,0.295339349110974,-0.68260283701152,0.525301417679903,0.807066771700755,-0.30663491280711,-0.17421453619748,0.592508996079157,0.696915431262326,0.636857797230846,-0.39481765202196,-0.77854162586372,-0.2648149794124,0.32750000546544,1.04363010834428,-0.34478273503955,0.248507085440517,-0.32971767561078,-0.21228268287821,-0.40355859004349,0.387400700035822,-0.79590492322441,-0.0290403663731,0.584595274230865,0.816570474438892,0.924505300110849,-0.68505805676773,0.115811699851851,0.0170002214407508,-0.40000912893707,0.597991794057876,0.225199793621251,-0.26832265638794,0.583928108999161,-0.84186654429014,0.180916642832333,0.263788234861559,0.577942093188501,-0.70510397325373,-0.26739206418497,-0.24976313690219,-0.61428612879752,-0.3959879620094,-0.09558274792499,-0.04490663509528,-1.33310171022053,0.662184481315851,-0.90881127911445,-0.34552132741542,-0.56486854786609,-0.50306389710374,-0.30744734653238,-0.14112786811732,0.270636926003246,0.626958330387832,0.644718423461851,0.374826654654075,1.07435588965939,-1.31352174500756,1.63443147193095,-1.21599722126241,-0.62011655024301,1.02297929806115,1.03474334414333,0.154235980115093,-0.17010276695696,0.737942757123158,1.09921763590278,0.283615090647792,0.661112021015159,0.54003539809371,-0.81156447414654,1.37482624887096,0.748821834262318,0.571041516857183,-0.08427202230297,-1.43363152536727,-1.32359631385938,0.465003291027586,-0.21415519038592,0.25845404019007,0.0386085017570145,0.895122581335826,-0.46174360473929,-0.70174677019442,-0.45258807397301,-0.30543584867827,0.686902556918146,0.483333000762011,-0.97879607326039,-0.09469687444223,-0.78962749259123,-0.66160190316755,-0.90261390842012,1.00220464874568,-0.06425196575728,-0.27370901352401,-0.19460631123014,-0.90773220614742,1.54945268668962,-1.27995116569455,0.800840865292613,-0.00679670451307,1.31548592911967,-1.02973816687336,-0.1575324909177,-1.0086862073641,-0.14271059183352,0.379291653737386,0.491544081631481,0.724374635706776,0.91194934050726,0.916474863030483,0.497318694598892,-0.08713988738929,1.6865306717503,-0.1112924225466,-0.97219056009941,1.38030347220713,0.617918461404439,0.757828805969149,-0.09262840021106,1.38481129029536,-1.21521455846165,-0.63689694896688,0.925446184871882,0.882866389097642,-0.40715188208146,0.0489783085378598,1.0757885337517,-0.03698774446622,-0.79622245602086,0.538550687809941,0.391694706001818,0.656085972705532,0.209192923824729,-0.53124493537852,-0.70184464456546,-0.04980574718156,-0.19230188070906,0.125781031779649,-0.81042321715012,-0.16594394548037,1.46964756716447,0.467018149628673,0.778011753244626,-0.61285963908145,-0.13206270828007,0.661484079777585,-0.556384772624,0.143031450538153,-0.4363864269806,-0.94218756195018,-0.35227998853634,-0.23286099992618,-0.6993815158286,-0.72368151497469,-0.81743648800632,0.907908060673327,1.02447212483505,-1.19141990478714,0.962967289468613,-0.85204436501539,-0.40712874262557,1.40889650390927,-1.11008821534481,-0.78418675276195,-0.09532385173396,-0.2286996309303,-1.07868877636787,0.328986081237327,0.54998167979529,-0.04561768149401,0.415472408003937,0.872664981103883,-1.27937972073383,0.736306632487339,0.205447818202347,0.423935002383515,-0.56222959908846,0.697566145732606,0.20055888450946,1.03167672643991,-0.11313814681632,0.241173204915027,-1.01065992692412,0.521270901785798,-0.67801925905483,-0.13265565064425,-0.19171789910418,-0.27233353408992,0.260859405843095,0.0840215836997427,-0.48215990111764,-0.85618421333525,-0.87670405668865,1.33919221154201,1.37896678260509,-0.97568246379807,-0.24645197120274,-0.20218201647852,0.094416492630416,0.0326825819766151,0.141504846694004,0.922037561145026,-1.00326302477917,-1.07719052152919,0.925906154428176,0.109186550375459,-0.25320540494663,-0.16902359284404,0.345554655249899,0.166335859968142,-0.85526999433845,0.0790440095409683,-0.00108257330342,1.43439096064204,0.27802949672462,-0.21866632353576,-0.55280704318436,-0.51467521123335,-0.59642577580042,-0.75941877288761,0.835228427944845,1.17095907073207,-0.47797650286675,0.455093891228402,0.185715829496314,0.0666770218344345,-0.97261984910539,0.607594870912587,0.537971574940112,-0.56280105943487,-0.55190225920084,-0.82981376903222,0.0907992769181381,0.263069340249386,-0.18410634802547,0.732087336088517,-1.30248019227959,1.20706227609779,0.795161913811727,-0.42847417019785,-0.29391937786991,0.384818587990991,0.0426879462581747,-0.69885007632877,-0.36051432854895,-0.545756223881,-0.44072118401778,0.306841228902254,0.698881515845166,0.0532669598561446,1.66693879656633,-1.49589561040329,-0.39438941733535,-0.72176467541502,0.260984231782713,-0.91751970592971,0.222011281333413,0.421766186303175,0.209403893612697,-0.05000337501367,0.633696497049662,0.813499898059273,0.285701715546623,0.264890551155325,-0.49159564134062,0.5234261697207,0.453160681985888,-0.40493719159077,0.780267455203971,-1.23908089755265,-0.16097000789424,-1.7997336371968,0.13342477090062,0.672553594174779,-0.71248912679117,-0.20380062548234,-0.45351067210246,-0.14174388307801,1.00975189674757,-0.81309079565036,0.838791666933047,-0.37679715202329,-0.02429799192495,-1.55024412153051,0.131376025385622,-0.37008739526885,0.905210677640812,-0.11847348269867,1.80998899750432,-0.70317452432782,-0.1203221700594,0.470358790690718,0.168071465257426,-0.58005177936826,-0.79406590061277,-0.4348995076882,0.34334442439567,0.172375472245112,0.289404152698828,-0.07699959627686,0.453639250045127,0.465086656308505,1.17996087935065,1.37426118153316,0.0484691879120317,-0.82271641737648,-0.60113112050581,-0.37879320744852,0.481087274022321,0.0126147183591066,-0.54406712672688,-0.36358388365974,-0.31763258958763,0.215301701764933,0.000807036194161592,-0.06819968089378,-1.12350484209566,0.832839576699994,0.0683600106737781,-0.05526983094393,-1.02316337370947,0.57571573971559,1.3193411145011,-1.11125067234012,-0.58105664373457,-0.63451798347231,-0.85227773953952,-0.3734415775889,0.884009084202607,-0.58630365447306,-0.72935324805335,-0.47282116878801,-0.44198862095809,-0.30365721468215,0.058472498231476,0.628702151351785,0.556381574076922,-0.84413756362707,-0.58108750728841,-0.34571136816725,0.0571081046051505,0.0534569074335443,0.742497175761554,-0.17437448999515,0.174030229899732,-0.02163737896962,0.142142946637542,-0.30628355308369,0.245680690089667,-0.03455931064547,-0.71779769934266,0.351532630860227,-0.19099046738716,0.390089455901238,-1.06910922132501,-0.99095005732742,0.707490350851557,-0.37164713380157,-0.08313440224263,0.0943844106594213,0.315796121961584,-0.7976719396961,-0.1245436434452,0.0635864477030976,0.267432422727672,-0.09565922555612,0.248020205917989,-0.27524682192224,-0.72122366304452,0.810691307814971,0.884486855774479,-2.14508258157787,-0.03429339770627,0.127890912117994,0.858396820842225,-0.14610249924788,1.2235367344506,-0.54952954960394,-0.27554782997615,-0.03584436249069,-0.88813345638652,0.194064318713735,-0.04870369418623,0.202239891642619,1.10708051003305,-0.26053500048977,1.1841742454129,-0.53903685195524,-0.00749241770587,-0.10919760112759,0.493339099930031,-0.18335619577399,-0.0354336998887,-0.21006515999379,0.31933561860317,-0.98746329636956,-1.44796621226977,-0.74638583092684,0.37943664945563,0.10699092577165,0.413475149386532,0.113047438228261,-0.32833515241067,0.369788944757621,-0.39303266953428,0.080408805374107,-0.8592063445188,-0.85349060844533,-0.89996884920404,-0.59524508281339,-0.91991801223161,-0.91250389613495,0.190152739430361,-1.41380029815956,-0.51247623718901,0.569565401753797,-0.13359472670157,0.147864655013067,1.25230865158107,1.13811531384365,1.20475688066664,1.51940906550054,0.827508411136085,-0.53968520995186,-0.31535722393134,0.166971372896201,0.891546959545121,0.345404201926331,-0.35717378301796,0.177775644415467,-0.14566922711641,-0.4798025759921,0.427122902192522,0.113212068762511,0.690589815783822,1.4814666119577,-0.47997371073468,-0.3365331684649,0.189650105747788,0.727864313817953,-0.17158903588332,0.371450915705746,0.598095322688838,0.716915315391577,0.166169260824877,-0.69966187711461,-0.38942808327286,-1.13196502084898,-0.21773450335878,0.795785627830497,-0.30079261184743,1.45424962578048,1.18766615674181,-0.20003934216404,0.0289078172032695,2.03152547767349,0.506169941253284,0.628721106191098,0.449980330452651,0.388318768942552,0.843647042006531,0.78172637857055,-1.10124383549896,0.462267052432899,0.0697776440292455,-0.12696477399146,-1.34957343404663,-1.01815670451337,0.386916827373506,-0.88149921518328,0.434231444000186,0.297348079609508,-0.07388989733496,0.377434360963683,0.457981860899015,-0.53915162505735,-0.40124879973575,-0.5713383726814,-1.021202663996,-0.63596676372153,0.893124129859541,0.235731778439013,0.661427144154462,-0.0615387860341,0.864473807210232,-0.96974832681411,-0.60821970156387,0.793508868745245,0.751570434020182,-0.26845661450219,0.22033222609363,0.840647990043655,-0.06374211829451,1.21997540741963,-0.86755672159426,-0.00318657177044,0.976184798533539,-0.31171536913272,-0.63955018348607,0.324769105806396,-0.15578376915121,0.832644275775323,-0.47353446704964,-0.49574428900479,-0.2567147694253,-0.3454329148334,0.36658237963881,-0.2476612453507,-0.42348660612566,-0.04565983282254,-0.75852834244645,0.542152151899873,-0.02062148227753,-0.00803593013835,-1.72794941157395,0.0729157187183893,0.825305647984547,-1.43776180690519,1.83787026923794,-0.42404146677314,-0.85707787558455,1.31952905823455,-0.28425334944878,-0.12103344048949,0.922645867307596,0.583422650841989,-0.0459605348469,-1.53734649510708,-0.24868307386363,0.706804536235855,0.089105410553273,-0.35244161432219,-0.59964558679635,0.476952225125737,0.716536799792905,0.805960157842502,-0.5577560383675,-0.51468777640586,-0.10452863347274,0.769136899367152,0.914491331906464,1.31450158811334,0.597168317466849,-0.13471853777706,-1.08281056737872,-0.37214815899427,0.341277788534138,-0.52716560736398,-0.97532980124901,0.254613480264968,-0.43928019952017,0.635366766699147,-0.58221190165361,1.57434863183717,0.186347424642454,0.43840258720673,-0.69605895440793,-1.72506575789465,0.0615823893628413,-0.97745236120285,0.872345553472022,-0.11262789692968,-0.3895140071302,0.741143516483806,-0.388959024508,-0.53646079517405,0.878568009269749,-0.31177067654596,-0.61811120708997,0.883497411485575,-1.0379000116101,-0.16251384604947,-1.20373029553525,-0.57606084330601,0.479490418224887,0.528554825127835,0.754790388806538,1.63225266859743,-0.44712792655523,0.840422446406516,0.376463903454301,0.290455623931235,-0.80957937355008,0.222372827515025,0.062375883717867,-0.51688176695569,0.481039673509959,0.195092300674677,0.203633300954859,-0.65699181084576,-0.44667208326746,-0.78705617993733,0.0474729850161315,-0.47476898159773,1.32950068054475,1.30964700671822,-1.131393785573,-0.16724163053284,-1.02717987162469,0.798523837301901,-1.12762674760509,0.612713221518844,-0.7627451318139,-0.27703679927873,1.04690306221587,0.059809181597008,-0.28232751806824,-0.21470237239505,0.607418529136827,0.518444855656452,-0.18136468073962,-0.57289423748728,0.0847207482513179,0.22384700435664,0.0351964451211597,0.571153330710942,-0.36598122248174,0.543175985171705,0.322210178824948,0.376537322199602,0.198701088756773,-0.40968966681838,-0.31539551086815,0.536364790171768,-0.5661405866389,-0.67361357775295,0.291135855796775,-1.49525688374043,-0.26670252801901,-0.87958368159879,-0.5646249537335,-0.84756813228921,-1.05771362108046,-0.71313878574276,0.0568446811320439,-0.35317117800371,-0.20653240096683,-0.23170675526384,-0.75461105125694,-0.0990799829681,0.323583265548967,-1.04527349323352,1.03893321354896,1.03907385187693,0.00468456665557009,0.553713612696417,-0.44265032888868,0.445993223796169,0.807068400773954,-0.56233783107784,-0.19005602908476,-0.46668796933594,-0.60181540497903,-0.73142655556262,-1.54029721675134,-0.08491561429142,-1.29331207751942,0.0616565684103304,0.0200722432991304,1.04304376809633,0.497471050949223,-0.25685763696667,-0.64523475307399,0.782204892969555,0.591564210273833,-1.10745527735121,0.27350467330306,-0.10725781737271,-0.30064467169057,0.645056146738262,-1.04648864989224,-0.7052208286466,0.782020137888691,-0.26891851642931,1.18759091623106,0.0332850152961967,0.230157889489868,-1.28302760939343,0.205892994005239,0.0839978608090278,-0.49920364145709,0.350268695374193,0.436359067897526,-0.26583414199374,-0.00538879804032,-0.06163469021836,-0.30791306936398,0.990168716759619,0.053753701647621,-1.00459457647847,0.919212661273461,0.0814133331581306,-0.01296368135919,0.370445034433267,0.459897167071462,-1.33312673922315,-0.43832959165544,1.01093804246936,1.01246777965464,-1.4926384143601,-0.72636854181346,-0.30193402567164,0.679800935529116,1.0786196655966,-0.26503080672218,-0.30002869045117,0.168381447661368,0.579499263010073,-0.12118994605892,-0.61911220874784,0.0834192874237439,-0.05207384090934,0.0548960757999691,0.762103778462777,-0.18803560713437,0.195279207670301,0.0145735573958562,-0.56645180229206,-0.30399322335973,-0.10797375512361,-0.46466123526834,-0.63293029259912,0.3275079361126,0.00115385688976153,0.16066717257413,-0.04551607945522,0.260667999548781,0.243578617272632,0.238388046974024,-0.66520424891918,-0.07725174631091,1.42926816682739,0.382180757297914,-0.63983860911554,-0.76618535441187,-0.57733124216499,0.514242526586008,-0.40943551768563,-0.74268055329683,-0.70808818248924,-0.14828325393033,0.141785151779411,0.386956623709411,-1.08046108996671,-0.61511998937806,-0.96065986025041,0.307180503749369,-0.66197500914199,0.622518111404613,0.0336336644301116,1.31706386216608,-0.06388014191464,-0.23780139335187,-0.77332633320268,-0.36321620488029,-0.86247840415361,-0.9019616480698,0.352524442247036,-0.59060818524625,0.118512604389274,-0.22910417581097,0.471707145802039,0.91786819677436,0.130903788909405,-0.94256528881475,0.182867304764523,-0.00783542898106,1.19713215820406,0.501030606447735,-0.35776043171112,-0.85709220216787,-1.17663645513941,-0.25159198093169,-0.02227546098353,-0.50147567680863,1.31440259556899,-0.32840967676787,0.929787934710798,0.0493959654105532,0.147280920675085,0.90914553603552,-0.14532978575979,1.00005899996556,0.899346767772411,-0.06378490745843,0.320960977293816,0.0377808583721454,0.42173093390675,-0.90558414672596,1.51464964170934,-0.51775678558851,0.570321184587272,-0.83093308145195,0.796200481093412,1.15742078323574,-0.13107374558185,1.39701444655137,0.46799316131449,0.294926123259217,-0.03426806274862,-0.17835737845688,0.579639162711941,0.764262776264409,-0.50885189794115,0.575984225362701,-0.30161833515396,0.27030751499922,0.185037285069588,-0.81171324765886,-0.17210224147256,0.647521231582248,-0.23994258902548,0.589313414470534,0.47964642145297,1.42360801238744,0.287721359065543,0.192206469057648,-1.32538808784189,-0.0136230743559,-0.76516725641918,0.998970642036674,-0.01102436953478,-0.14378385947713,1.37158523881573,1.03441103759563,0.505172398758363,0.948787290305289,-0.42168097074796,-0.35210231649564,0.136252080865592,0.365532583945974,0.942497044535407,-0.16174980693262,-0.48272152073779,0.871074080036435,-0.1671545055285,0.0549757133893591,0.66860625375855,0.510027977817756,-0.19464980232807,-0.09303539728127,-0.15644076882623,-0.06421682979914,-0.40703309205076,0.0998292352851838,-0.40721356976054,-1.39534900832589,1.61796975986734,-0.61186030531172,0.117956842920897,0.82477038954572,-0.25240213194289,-1.0823298174714,0.248129965727797,0.941962215936862,0.237644752773769,-1.41815603155168,0.105517127748697,1.48686941069058,-0.73101577110867,0.604468016314629,0.661844520581159,0.231763917338891,0.484260681125064,-0.4625024358237,-0.98622924847991,-1.30635450406278,0.332082418625838,1.17670365439277,-0.6412278314946,-0.08591241356443,-0.49528192823075,0.120194689484603,-0.2200863856951,0.0260786616875295,-0.29682313833844,-0.49955558142973,0.619603484910348,0.371117838582426,0.549010816869752,-0.55726330265823,1.02549018201836,1.09465348926437,-0.0734650924276,2.14624231854205,-0.21809370491029,1.01037914647725,0.586038755615185,0.188201162795801,-0.40310683164323,-0.03135794692814,-1.01054840027896,1.14366725206259,-0.48194213487066,0.27263810645482,-0.65017599542227,-0.13401583940447,-0.1235325407738,-0.15024975462317,-0.43937557864028,-0.69135803191992,-0.25926445439473,0.0765730082615062,0.446369346770606,1.12963549645099,-0.23406097685324,-0.23136750189309,-0.42818031284572,-0.60547024025895,0.432595132320765,-0.32677789348556,-0.42368778930255,-0.42665541110961,-0.27018083152971,0.208759940515041,-0.6749738474297,1.51104991218701,0.472470483648022,-0.0951723275107,-0.7502089752606,-0.08206512895107,0.73319859534307,-0.02590227015016,-0.94725125703857,-0.46968843842755,-0.44726978451677,-0.75572030431596,0.211153370751161,-0.32672398004986,-0.89643818503155,0.731048910260672,0.505540953856816,-0.52238983088655,-0.02911778915534,0.377545711493145,-0.93485014489945,0.0279365906798638,-0.1986836939485,-0.92684535984472,-0.98765407142058,-1.16743196961217,-0.38012759373283,-0.55014943792406,0.492490697593575,0.231226867277207,0.484548108963046,0.06984620517443,-0.08578534350368,0.67542374862932,1.03748390278304,0.755004150988361,-0.55367247207675,0.121453048933988,1.0286378330398,-0.83147996680491,0.26091209085101,-1.02009900756457,-0.40959863805961,-0.22512813820482,0.312268504094206,0.313063340319076,-0.03061773093064,-0.1567443662357,0.259244850788572,-0.46701290129413,0.761186195408364,-0.65748106300127,-0.27925318450913,-0.69284242845233,-0.0072049454377,0.175078625014275,-0.22082413875678,-0.4128017344559,-0.18558524429685,-0.16697055770374,0.126820941993977,0.49608558494604,0.632969920800738,0.0829367689135871,0.628754512029839,-0.50313816805592,0.0363889724814923,0.947623120126511,-0.21798973020989,-0.66277106203411,0.447350105557099,-0.13839056469851,0.515889887128082,-0.26153745077327,0.467257022125131,-0.07831451988983,-0.70534207115625,0.397347643913193,-0.82359523513259,-0.14943126358779,0.492534372227927,-0.38190874946181,-0.06515732864573,0.619279412716863,1.22421831027738,1.16731338820959,-0.97882565131385,1.62681053788978,-0.58343563816029,-0.16652805065498,0.00663470277120997,0.378256774080445,0.149838185886018,0.779056457255391,-0.87047574917302,-1.50968986047897,0.273742899529561,-0.12591763279774,-1.14716680653481,0.631967162644466,-0.26555695177199,1.06075683164409,0.396318916843837,0.13352697861437,0.098363973977074,0.584833065008093,-1.2337409590271,-0.07267365014152,0.309341046384479,-1.03143001401689,0.700125241281481,0.648579025453442,0.106918740951107,-0.81474049361476,1.12052363227786,-0.83897047164131,0.547741419645488,-0.51700728231882,0.315494134504906,0.199741675553195,0.128583167274644,0.515391204730731,0.0168224501430494,-0.29020811798178,0.662816539031184,-0.1541632593249,0.972737557782153,0.681918208971962,0.046781501074182,-0.61324199442222,0.405156448467697,-0.61742061141805,-1.6779925986186,0.533023253187358,-0.56641629107673,0.871084436025254,-0.13844731533846,0.104459825780717,-0.49389103659135,-0.84735587223773,-0.86389491649864,-0.65602544688281,-0.03393108014812,0.30211010444207,-0.91755592744404,-0.21350615959971,1.50986081508279,-0.27736379618409,0.553361065292528,0.431708161592321,-0.19965453346889,0.328859328145239,-0.21981050854899,-1.25123607801662,-0.15801835824124,0.354278493325549,-0.09325472939628,0.111740507358746,-0.61270789169783,0.368785617721815,1.47868499510415,-1.09291021957031,0.46593456849584,0.0232515220788483,0.388014337907856,0.0196392270297993,-0.42423983325665,1.66450729663606,0.71862492811545,0.305834986048709,0.854970592962981,-0.95552896817685,-0.4022631512005,0.0832710959410396,0.631877493242256,-0.04138530053831,-0.24900475756243,-1.03326402791539,0.164605850116486,0.27693629345461,0.0377657120409258,0.179979785719301,0.13709016974459,0.167465397251055,0.883777943219606,1.48741491358758,-1.02871616940384,0.918872941722603,0.18869311305708,-1.34416251701053,-0.5656517897,0.28377603366514,1.21848674851098,0.952040533855008,-0.37009099972872,-0.06768970170786,-1.1289508158999,-0.51040954768844,-0.69150634291768,0.74311108214145,0.985212147381729,-0.06764587272996,0.852213702981743,0.525102297564819,-0.64384539795079,-0.00593685048862,-0.6896920993247,1.31098065870343,-0.86240248470825,0.0983037042817885,0.73033345068991,0.198933727209772,-0.82184214808838,-0.27343286784827,-0.02297130684404,0.906508733217783,-0.96333226119604,0.0939889585668133,0.194192522528397,1.46372882751004,0.803315929194009,0.801356993540503,-0.4377685178718]},{"activation_name":"sigmoid","bias":[0.154042595995773],"cols":32,"rows":1,"size":1,"weights":[0.258621687108287,-0.1325384124101,-0.10570562868818,0.0598778678107508,0.351895000630648,0.0361118518082705,0.140087126493184,-0.83095396825559,-0.10349194654086,0.310425902795677,-0.15773515461091,-0.08290590242104,1.69097821166089,-1.06819123489185,-0.92043852800109,-0.20334942390189,0.51971131274626,-0.55658140746379,-0.15399747683764,0.35711995315217,-1.24511629688035,0.138365847612937,0.187050966312111,0.187121115552176,-0.31709822123844,0.0341638524535849,-0.17761577185368,-0.38563853119127,0.695394522103243,0.488899856927194,0.883768847036006,0.579543192720541]}],"total_loss":88.4275503572661,"total_score":120000}
